{"learner":{"attributes":{"scikit_learn":"{\"_estimator_type\": \"regressor\"}"},"feature_names":["event_cause","corridor","zone","veh_type","hour_of_day","day_of_week","event_type"],"feature_types":["int","int","int","int","float","float","int"],"gradient_booster":{"model":{"cats":{"enc":[],"feature_segments":[],"sorted_idx":[]},"gbtree_model_param":{"num_parallel_tree":"1","num_trees":"300"},"iteration_indptr":[0,1,2,3,4,5,6,7,8,9,10,11,12,13,14,15,16,17,18,19,20,21,22,23,24,25,26,27,28,29,30,31,32,33,34,35,36,37,38,39,40,41,42,43,44,45,46,47,48,49,50,51,52,53,54,55,56,57,58,59,60,61,62,63,64,65,66,67,68,69,70,71,72,73,74,75,76,77,78,79,80,81,82,83,84,85,86,87,88,89,90,91,92,93,94,95,96,97,98,99,100,101,102,103,104,105,106,107,108,109,110,111,112,113,114,115,116,117,118,119,120,121,122,123,124,125,126,127,128,129,130,131,132,133,134,135,136,137,138,139,140,141,142,143,144,145,146,147,148,149,150,151,152,153,154,155,156,157,158,159,160,161,162,163,164,165,166,167,168,169,170,171,172,173,174,175,176,177,178,179,180,181,182,183,184,185,186,187,188,189,190,191,192,193,194,195,196,197,198,199,200,201,202,203,204,205,206,207,208,209,210,211,212,213,214,215,216,217,218,219,220,221,222,223,224,225,226,227,228,229,230,231,232,233,234,235,236,237,238,239,240,241,242,243,244,245,246,247,248,249,250,251,252,253,254,255,256,257,258,259,260,261,262,263,264,265,266,267,268,269,270,271,272,273,274,275,276,277,278,279,280,281,282,283,284,285,286,287,288,289,290,291,292,293,294,295,296,297,298,299,300],"tree_info":[0,0,0,0,0,0,0,0,0,0,0,0,0,0,0,0,0,0,0,0,0,0,0,0,0,0,0,0,0,0,0,0,0,0,0,0,0,0,0,0,0,0,0,0,0,0,0,0,0,0,0,0,0,0,0,0,0,0,0,0,0,0,0,0,0,0,0,0,0,0,0,0,0,0,0,0,0,0,0,0,0,0,0,0,0,0,0,0,0,0,0,0,0,0,0,0,0,0,0,0,0,0,0,0,0,0,0,0,0,0,0,0,0,0,0,0,0,0,0,0,0,0,0,0,0,0,0,0,0,0,0,0,0,0,0,0,0,0,0,0,0,0,0,0,0,0,0,0,0,0,0,0,0,0,0,0,0,0,0,0,0,0,0,0,0,0,0,0,0,0,0,0,0,0,0,0,0,0,0,0,0,0,0,0,0,0,0,0,0,0,0,0,0,0,0,0,0,0,0,0,0,0,0,0,0,0,0,0,0,0,0,0,0,0,0,0,0,0,0,0,0,0,0,0,0,0,0,0,0,0,0,0,0,0,0,0,0,0,0,0,0,0,0,0,0,0,0,0,0,0,0,0,0,0,0,0,0,0,0,0,0,0,0,0,0,0,0,0,0,0,0,0,0,0,0,0,0,0,0,0,0,0,0,0,0,0,0,0,0,0,0,0,0,0,0,0,0,0,0,0],"trees":[{"base_weights":[-8.151036E-5,8.458321E3,-6.289219E2,1.5602409E4,3.9585918E3,6.5588716E3,3.1190518E4,-6.164334E2,4.7320654E3,-6.152378E2,9.01353E3,4.4066902E4,2.039546E4,6.993155E3,2.245697E3,1.1965435E4,7.555291E2,6.1379918E4,3.1168574E4,3.326614E4,1.2239666E4,4.008371E3,1.286947E4,-6.2120514E1,3.949456E3,2.7164104E3,1.0229761E3,-9.0367455E1,5.271119E2,6.911347E3,-2.299755E2,6.9374917E3,1.9804163E3,2.101313E3,8.286034E3,3.4570334E2,2.2707974E3,-1.732651E2,4.6453198E2,2.0176576E3,7.445832E2,3.6633478E2,-1.4943103E2,2.9960883E2,1.0480361E3],"categories":[],"categories_nodes":[],"categories_segments":[],"categories_sizes":[],"default_left":[0,0,0,0,0,0,0,0,0,0,0,0,0,0,0,0,0,0,0,0,0,0,0,0,0,0,0,0,0,0,0,0,0,0,0,0,0,0,0,0,0,0,0,0,0],"id":0,"left_children":[1,3,-1,5,7,9,11,-1,13,-1,15,17,19,21,23,25,27,29,31,33,35,37,39,41,43,-1,-1,-1,-1,-1,-1,-1,-1,-1,-1,-1,-1,-1,-1,-1,-1,-1,-1,-1,-1],"loss_changes":[1.3309697E11,3.4238505E10,0E0,5.7875735E10,5.165529E9,8.230321E9,2.0090438E10,0E0,3.4136556E9,0E0,5.353861E9,1.3271884E10,8.410366E9,5.5435233E9,1.1483791E9,3.9956685E9,4.4680806E8,1.3948101E10,1.6427983E10,1.7704546E10,4.794279E9,7.86933E8,4.0902963E9,6.724214E8,1.0146276E9,0E0,0E0,0E0,0E0,0E0,0E0,0E0,0E0,0E0,0E0,0E0,0E0,0E0,0E0,0E0,0E0,0E0,0E0,0E0,0E0],"parents":[2147483647,0,0,1,1,3,3,4,4,5,5,6,6,8,8,10,10,11,11,12,12,13,13,14,14,15,15,16,16,17,17,18,18,19,19,20,20,21,21,22,22,23,23,24,24],"right_children":[2,4,-1,6,8,10,12,-1,14,-1,16,18,20,22,24,26,28,30,32,34,36,38,40,42,44,-1,-1,-1,-1,-1,-1,-1,-1,-1,-1,-1,-1,-1,-1,-1,-1,-1,-1,-1,-1],"split_conditions":[1E0,1E1,-6.289219E2,6E0,2E0,2E0,7E0,-6.164334E2,1.1E1,-6.152378E2,5E0,2.1E1,4E0,6E0,1.5E1,3E0,1.2E1,8E0,5E0,5E0,8E0,3E0,8E0,7E0,1.9E1,2.7164104E3,1.0229761E3,-9.0367455E1,5.271119E2,6.911347E3,-2.299755E2,6.9374917E3,1.9804163E3,2.101313E3,8.286034E3,3.4570334E2,2.2707974E3,-1.732651E2,4.6453198E2,2.0176576E3,7.445832E2,3.6633478E2,-1.4943103E2,2.9960883E2,1.0480361E3],"split_indices":[3,2,0,0,0,0,0,0,0,0,5,4,2,0,0,1,1,2,1,5,4,1,4,4,4,0,0,0,0,0,0,0,0,0,0,0,0,0,0,0,0,0,0,0,0],"split_type":[0,0,0,0,0,0,0,0,0,0,0,0,0,0,0,0,0,0,0,0,0,0,0,0,0,0,0,0,0,0,0,0,0,0,0,0,0,0,0,0,0,0,0,0,0],"sum_hessian":[2.5E3,1.066E3,1.434E3,4.11E2,6.55E2,2.61E2,1.5E2,4.6E1,6.09E2,4.2E1,2.19E2,6.7E1,8.3E1,3.18E2,2.91E2,1.61E2,5.8E1,2.7E1,4E1,3.1E1,5.2E1,2.12E2,1.06E2,1.24E2,1.67E2,1.5E1,1.46E2,4.3E1,1.5E1,2.4E1,3E0,8E0,3.2E1,2.6E1,5E0,2.9E1,2.3E1,2.1E1,1.91E2,4.4E1,6.2E1,3.4E1,9E1,1.47E2,2E1],"tree_param":{"num_deleted":"0","num_feature":"7","num_nodes":"45","size_leaf_vector":"1"}},{"base_weights":[1.4208981E1,7.646384E3,-5.6607355E2,1.4120236E4,3.5688325E3,5.916576E3,2.826089E4,-5.561016E2,4.266429E3,-5.5514484E2,8.1311597E3,3.9889613E4,1.8510723E4,6.3034116E3,2.0264854E3,1.0791975E4,6.873788E2,5.5480547E4,2.8269229E4,1.0671671E4,3.030224E4,3.6089016E3,1.1608338E4,-5.4173325E1,3.562532E3,5.6368103E1,1.3208108E3,-8.153607E1,4.7769513E2,6.247858E3,-2.1272733E2,6.3208257E3,1.7883759E3,-1.6047112E2,2.3009773E3,4.912348E3,1.561226E3,-1.5672617E2,4.1832077E2,1.8203754E3,6.713067E2,3.3074792E2,-1.3465213E2,4.9102304E2,-2.3029402E1],"categories":[],"categories_nodes":[],"categories_segments":[],"categories_sizes":[],"default_left":[0,0,0,0,0,0,0,0,0,0,0,0,0,0,0,0,0,0,0,0,0,0,0,0,0,0,0,0,0,0,0,0,0,0,0,0,0,0,0,0,0,0,0,0,0],"id":1,"left_children":[1,3,-1,5,7,9,11,-1,13,-1,15,17,19,21,23,25,27,29,31,33,35,37,39,41,43,-1,-1,-1,-1,-1,-1,-1,-1,-1,-1,-1,-1,-1,-1,-1,-1,-1,-1,-1,-1],"loss_changes":[1.08367E11,2.8115702E10,0E0,4.7626895E10,4.2017577E9,6.699129E9,1.6382296E10,0E0,2.7704893E9,0E0,4.3500175E9,1.0751353E10,7.441105E9,4.5179505E9,9.334216E8,3.9960474E9,3.664831E8,1.1420869E10,1.3746786E10,7.91322E9,8.35703E9,6.397412E8,3.332436E9,5.475067E8,8.598775E8,0E0,0E0,0E0,0E0,0E0,0E0,0E0,0E0,0E0,0E0,0E0,0E0,0E0,0E0,0E0,0E0,0E0,0E0,0E0,0E0],"parents":[2147483647,0,0,1,1,3,3,4,4,5,5,6,6,8,8,10,10,11,11,12,12,13,13,14,14,15,15,16,16,17,17,18,18,19,19,20,20,21,21,22,22,23,23,24,24],"right_children":[2,4,-1,6,8,10,12,-1,14,-1,16,18,20,22,24,26,28,30,32,34,36,38,40,42,44,-1,-1,-1,-1,-1,-1,-1,-1,-1,-1,-1,-1,-1,-1,-1,-1,-1,-1,-1,-1],"split_conditions":[1E0,1E1,-5.6607355E2,6E0,2E0,2E0,7E0,-5.561016E2,1.1E1,-5.5514484E2,5E0,2.1E1,4E0,6E0,1.5E1,4E0,1.2E1,8E0,5E0,8E0,5E0,3E0,8E0,7E0,1.2E1,5.6368103E1,1.3208108E3,-8.153607E1,4.7769513E2,6.247858E3,-2.1272733E2,6.3208257E3,1.7883759E3,-1.6047112E2,2.3009773E3,4.912348E3,1.561226E3,-1.5672617E2,4.1832077E2,1.8203754E3,6.713067E2,3.3074792E2,-1.3465213E2,4.9102304E2,-2.3029402E1],"split_indices":[3,2,0,0,0,0,0,0,0,0,5,4,5,0,0,4,1,2,1,4,2,1,4,4,1,0,0,0,0,0,0,0,0,0,0,0,0,0,0,0,0,0,0,0,0],"split_type":[0,0,0,0,0,0,0,0,0,0,0,0,0,0,0,0,0,0,0,0,0,0,0,0,0,0,0,0,0,0,0,0,0,0,0,0,0,0,0,0,0,0,0,0,0],"sum_hessian":[2.5E3,1.066E3,1.434E3,4.11E2,6.55E2,2.61E2,1.5E2,4.6E1,6.09E2,4.2E1,2.19E2,6.7E1,8.3E1,3.18E2,2.91E2,1.61E2,5.8E1,2.7E1,4E1,5.1E1,3.2E1,2.12E2,1.06E2,1.24E2,1.67E2,3.1E1,1.3E2,4.3E1,1.5E1,2.4E1,3E0,8E0,3.2E1,2.6E1,2.5E1,1.3E1,1.9E1,2.1E1,1.91E2,4.4E1,6.2E1,3.4E1,9E1,1.23E2,4.4E1],"tree_param":{"num_deleted":"0","num_feature":"7","num_nodes":"45","size_leaf_vector":"1"}},{"base_weights":[2.329273E1,6.906898E3,-5.0950558E2,1.2766408E4,3.216311E3,5.329568E3,2.558552E4,-5.0167462E2,3.8453887E3,-5.0092136E2,7.3261045E3,3.6108656E4,1.67622E4,5.681701E3,1.8261111E3,9.721278E3,6.2535547E2,5.014803E4,2.564009E4,2.7911287E4,9.714407E3,3.2492395E3,1.0470791E4,-3.1717131E3,2.4104868E3,2.369532E3,8.1341626E2,5.226562E2,-6.60624E1,5.6701377E3,-3.347374E2,6.012433E3,1.6772031E3,1.7110781E3,7.186169E3,2.3658887E2,1.8495287E3,1.5755206E2,4.955774E2,1.6423832E3,6.0524164E2,-5.2153424E2,-6.441522E1,1.3948292E3,1.7029161E2],"categories":[],"categories_nodes":[],"categories_segments":[],"categories_sizes":[],"default_left":[0,0,0,0,0,0,0,0,0,0,0,0,0,0,0,0,0,0,0,0,0,0,0,0,0,0,0,0,0,0,0,0,0,0,0,0,0,0,0,0,0,0,0,0,0],"id":2,"left_children":[1,3,-1,5,7,9,11,-1,13,-1,15,17,19,21,23,25,27,29,31,33,35,37,39,41,43,-1,-1,-1,-1,-1,-1,-1,-1,-1,-1,-1,-1,-1,-1,-1,-1,-1,-1,-1,-1],"loss_changes":[8.815215E10,2.3032848E10,0E0,3.9141118E10,3.4168673E9,5.444837E9,1.3414941E10,0E0,2.25152E9,0E0,3.5248005E9,8.708301E9,6.3292805E9,3.6820982E9,8.6046266E8,3.4001633E9,3.5255917E8,1.0005864E10,1.1529734E10,1.396036E10,3.3761444E9,6.00575E8,2.7149926E9,1.5676784E8,2.1151667E9,0E0,0E0,0E0,0E0,0E0,0E0,0E0,0E0,0E0,0E0,0E0,0E0,0E0,0E0,0E0,0E0,0E0,0E0,0E0,0E0],"parents":[2147483647,0,0,1,1,3,3,4,4,5,5,6,6,8,8,10,10,11,11,12,12,13,13,14,14,15,15,16,16,17,17,18,18,19,19,20,20,21,21,22,22,23,23,24,24],"right_children":[2,4,-1,6,8,10,12,-1,14,-1,16,18,20,22,24,26,28,30,32,34,36,38,40,42,44,-1,-1,-1,-1,-1,-1,-1,-1,-1,-1,-1,-1,-1,-1,-1,-1,-1,-1,-1,-1],"split_conditions":[1E0,1E1,-5.0950558E2,6E0,2E0,2E0,7E0,-5.0167462E2,1.1E1,-5.0092136E2,5E0,2.1E1,4E0,6E0,3E0,3E0,3E0,6E0,3E0,5E0,8E0,8E0,8E0,7E0,7E0,2.369532E3,8.1341626E2,5.226562E2,-6.60624E1,5.6701377E3,-3.347374E2,6.012433E3,1.6772031E3,1.7110781E3,7.186169E3,2.3658887E2,1.8495287E3,1.5755206E2,4.955774E2,1.6423832E3,6.0524164E2,-5.2153424E2,-6.441522E1,1.3948292E3,1.7029161E2],"split_indices":[3,2,0,0,0,0,0,0,0,0,5,4,2,0,1,1,4,5,1,5,4,4,4,4,1,0,0,0,0,0,0,0,0,0,0,0,0,0,0,0,0,0,0,0,0],"split_type":[0,0,0,0,0,0,0,0,0,0,0,0,0,0,0,0,0,0,0,0,0,0,0,0,0,0,0,0,0,0,0,0,0,0,0,0,0,0,0,0,0,0,0,0,0],"sum_hessian":[2.5E3,1.066E3,1.434E3,4.11E2,6.55E2,2.61E2,1.5E2,4.6E1,6.09E2,4.2E1,2.19E2,6.7E1,8.3E1,3.18E2,2.91E2,1.61E2,5.8E1,2.7E1,4E1,3.1E1,5.2E1,2.12E2,1.06E2,3E1,2.61E2,1.5E1,1.46E2,1.2E1,4.6E1,2.4E1,3E0,7E0,3.3E1,2.6E1,5E0,2.9E1,2.3E1,1.08E2,1.04E2,4.4E1,6.2E1,1.6E1,1.4E1,1.4E1,2.47E2],"tree_param":{"num_deleted":"0","num_feature":"7","num_nodes":"45","size_leaf_vector":"1"}},{"base_weights":[3.296484E1,6.244817E3,-4.5859058E2,1.1555658E4,2.8998298E3,4.808591E3,2.3185963E4,-4.5257455E2,3.4672104E3,-4.5199414E2,6.6100376E3,3.2689334E4,1.5216734E4,5.122624E3,1.6468534E3,8.535841E3,-8.600835E2,6.534001E4,2.847572E4,8.414927E3,2.5473621E4,2.9273816E3,9.444718E3,-1.9854918E2,3.0101182E3,7.027691E2,2.537758E3,2.4671013E3,-3.8790213E2,9.783771E2,7.296876E3,3.9181094E3,1.3147233E3,-2.169506E2,1.9082802E3,4.2796763E3,1.2073743E3,-1.7216982E2,3.4448422E2,1.4817948E3,5.4567816E2,1.3510187E2,-2.6295325E2,2.1397073E2,9.0011035E2],"categories":[],"categories_nodes":[],"categories_segments":[],"categories_sizes":[],"default_left":[0,0,0,0,0,0,0,0,0,0,0,0,0,0,0,0,0,0,0,0,0,0,0,0,0,0,0,0,0,0,0,0,0,0,0,0,0,0,0,0,0,0,0,0,0],"id":3,"left_children":[1,3,-1,5,7,9,11,-1,13,-1,15,17,19,21,23,25,27,29,31,33,35,37,39,41,43,-1,-1,-1,-1,-1,-1,-1,-1,-1,-1,-1,-1,-1,-1,-1,-1,-1,-1,-1,-1],"loss_changes":[7.178668E10,1.8921423E10,0E0,3.2218333E10,2.7795036E9,4.432749E9,1.0938491E10,0E0,1.8297646E9,0E0,3.1722578E9,7.494656E9,5.6459325E9,2.9990374E9,7.352032E8,4.266629E9,3.6412316E9,2.2528614E9,9.658905E9,5.912898E9,7.143506E9,5.1834816E8,2.2119485E9,4.7442422E8,8.56796E8,0E0,0E0,0E0,0E0,0E0,0E0,0E0,0E0,0E0,0E0,0E0,0E0,0E0,0E0,0E0,0E0,0E0,0E0,0E0,0E0],"parents":[2147483647,0,0,1,1,3,3,4,4,5,5,6,6,8,8,10,10,11,11,12,12,13,13,14,14,15,15,16,16,17,17,18,18,19,19,20,20,21,21,22,22,23,23,24,24],"right_children":[2,4,-1,6,8,10,12,-1,14,-1,16,18,20,22,24,26,28,30,32,34,36,38,40,42,44,-1,-1,-1,-1,-1,-1,-1,-1,-1,-1,-1,-1,-1,-1,-1,-1,-1,-1,-1,-1],"split_conditions":[1E0,1E1,-4.5859058E2,6E0,2E0,2E0,7E0,-4.5257455E2,1.1E1,-4.5199414E2,1.5E1,2E0,4E0,6E0,1.5E1,1.2E1,1E0,3E0,2.2E1,8E0,5E0,3E0,8E0,4E0,1.9E1,7.027691E2,2.537758E3,2.4671013E3,-3.8790213E2,9.783771E2,7.296876E3,3.9181094E3,1.3147233E3,-2.169506E2,1.9082802E3,4.2796763E3,1.2073743E3,-1.7216982E2,3.4448422E2,1.4817948E3,5.4567816E2,1.3510187E2,-2.6295325E2,2.1397073E2,9.0011035E2],"split_indices":[3,2,0,0,0,0,0,0,0,0,1,1,5,0,0,1,5,5,4,4,4,1,4,5,4,0,0,0,0,0,0,0,0,0,0,0,0,0,0,0,0,0,0,0,0],"split_type":[0,0,0,0,0,0,0,0,0,0,0,0,0,0,0,0,0,0,0,0,0,0,0,0,0,0,0,0,0,0,0,0,0,0,0,0,0,0,0,0,0,0,0,0,0],"sum_hessian":[2.5E3,1.066E3,1.434E3,4.11E2,6.55E2,2.61E2,1.5E2,4.6E1,6.09E2,4.2E1,2.19E2,6.7E1,8.3E1,3.18E2,2.91E2,1.74E2,4.5E1,6E0,6.1E1,5.1E1,3.2E1,2.12E2,1.06E2,1.24E2,1.67E2,1.61E2,1.3E1,4E0,4.1E1,1E0,5E0,3.5E1,2.6E1,2.6E1,2.5E1,1.3E1,1.9E1,2.1E1,1.91E2,4.4E1,6.2E1,7.6E1,4.8E1,1.47E2,2E1],"tree_param":{"num_deleted":"0","num_feature":"7","num_nodes":"45","size_leaf_vector":"1"}},{"base_weights":[4.0795395E1,5.6468467E3,-4.127635E2,1.0462117E4,2.6140137E3,4.3463105E3,2.1004363E4,-4.0828E2,3.1257124E3,-4.078459E2,5.9732144E3,2.9619049E4,1.3780518E4,-1.9015101E3,3.65738E3,8.108776E3,8.228176E0,5.9988188E4,2.5712549E4,2.379025E4,7.4768965E3,-3.0847322E3,4.204751E3,1.3488398E4,2.9043308E3,-8.366701E1,1.02320233E3,-1.4649535E2,4.0589633E2,9.294582E2,6.6888022E3,3.5371821E3,1.1881202E3,1.4236102E3,6.2818867E3,1.0603047E2,1.5186099E3,1.7037127E1,-4.0072067E2,6.7046936E2,-3.863346E2,-1.8332394E2,1.6897295E3,4.2790338E2,1.424109E2],"categories":[],"categories_nodes":[],"categories_segments":[],"categories_sizes":[],"default_left":[0,0,0,0,0,0,0,0,0,0,0,0,0,0,0,0,0,0,0,0,0,0,0,0,0,0,0,0,0,0,0,0,0,0,0,0,0,0,0,0,0,0,0,0,0],"id":4,"left_children":[1,3,-1,5,7,9,11,-1,13,-1,15,17,19,21,23,25,27,29,31,33,35,37,39,41,43,-1,-1,-1,-1,-1,-1,-1,-1,-1,-1,-1,-1,-1,-1,-1,-1,-1,-1,-1,-1],"loss_changes":[5.8467762E10,1.5555023E10,0E0,2.6472129E10,2.2607104E9,3.6154086E9,8.988746E9,0E0,1.6373688E9,0E0,2.8024248E9,6.5248666E9,5.1223183E9,4.392492E8,4.0474132E9,3.0854922E9,3.5802678E8,1.8267484E9,7.862989E9,1.1038028E10,2.605639E9,1.5082016E8,2.2760034E8,2.0679419E9,1.0398264E9,0E0,0E0,0E0,0E0,0E0,0E0,0E0,0E0,0E0,0E0,0E0,0E0,0E0,0E0,0E0,0E0,0E0,0E0,0E0,0E0],"parents":[2147483647,0,0,1,1,3,3,4,4,5,5,6,6,8,8,10,10,11,11,12,12,13,13,14,14,15,15,16,16,17,17,18,18,19,19,20,20,21,21,22,22,23,23,24,24],"right_children":[2,4,-1,6,8,10,12,-1,14,-1,16,18,20,22,24,26,28,30,32,34,36,38,40,42,44,-1,-1,-1,-1,-1,-1,-1,-1,-1,-1,-1,-1,-1,-1,-1,-1,-1,-1,-1,-1],"split_conditions":[1E0,1E1,-4.127635E2,6E0,2E0,2E0,7E0,-4.0828E2,3E0,-4.078459E2,5E0,2E0,4E0,2.1E1,6E0,4E0,1.2E1,3E0,2.2E1,5E0,8E0,2E0,7E0,3E0,1.1E1,-8.366701E1,1.02320233E3,-1.4649535E2,4.0589633E2,9.294582E2,6.6888022E3,3.5371821E3,1.1881202E3,1.4236102E3,6.2818867E3,1.0603047E2,1.5186099E3,1.7037127E1,-4.0072067E2,6.7046936E2,-3.863346E2,-1.8332394E2,1.6897295E3,4.2790338E2,1.424109E2],"split_indices":[3,2,0,0,0,0,0,0,1,0,5,1,2,4,1,4,1,5,4,5,4,1,0,4,0,0,0,0,0,0,0,0,0,0,0,0,0,0,0,0,0,0,0,0,0],"split_type":[0,0,0,0,0,0,0,0,0,0,0,0,0,0,0,0,0,0,0,0,0,0,0,0,0,0,0,0,0,0,0,0,0,0,0,0,0,0,0,0,0,0,0,0,0],"sum_hessian":[2.5E3,1.066E3,1.434E3,4.11E2,6.55E2,2.61E2,1.5E2,4.6E1,6.09E2,4.2E1,2.19E2,6.7E1,8.3E1,5.8E1,5.51E2,1.61E2,5.8E1,6E0,6.1E1,3.1E1,5.2E1,4.9E1,9E0,3.8E1,5.13E2,3.1E1,1.3E2,4.3E1,1.5E1,1E0,5E0,3.5E1,2.6E1,2.6E1,5E0,2.9E1,2.3E1,1.1E1,3.8E1,7E0,2E0,7E0,3.1E1,2.65E2,2.48E2],"tree_param":{"num_deleted":"0","num_feature":"7","num_nodes":"45","size_leaf_vector":"1"}},{"base_weights":[4.6160427E1,5.1046865E3,-3.715159E2,9.470432E3,2.355004E3,3.914699E3,1.904746E4,-3.6832068E2,2.8163823E3,-3.6800977E2,5.3813423E3,2.6838668E4,1.2513539E4,-1.7130465E3,3.2954038E3,7.107911E3,-1.3041112E3,2.925329E4,-9.436224E3,6.6167236E3,2.1426293E4,-2.7839326E3,3.8126887E3,1.2178185E4,2.6150073E3,5.752667E2,2.2282317E3,2.187877E3,-4.032928E2,4.383975E3,1.940542E3,-2.709092E2,-1.3017948E3,1.1510071E2,2.2925334E3,2.7269856E3,-9.41471E2,1.547539E1,-3.6167612E2,6.118032E2,-3.6057895E2,-1.6728311E2,1.526037E3,3.852739E2,1.2822697E2],"categories":[],"categories_nodes":[],"categories_segments":[],"categories_sizes":[],"default_left":[0,0,0,0,0,0,0,0,0,0,0,0,0,0,0,0,0,0,0,0,0,0,0,0,0,0,0,0,0,0,0,0,0,0,0,0,0,0,0,0,0,0,0,0,0],"id":5,"left_children":[1,3,-1,5,7,9,11,-1,13,-1,15,17,19,21,23,25,27,29,31,33,35,37,39,41,43,-1,-1,-1,-1,-1,-1,-1,-1,-1,-1,-1,-1,-1,-1,-1,-1,-1,-1,-1,-1],"loss_changes":[4.760482E10,1.2786405E10,0E0,2.1846893E10,1.8379246E9,2.938185E9,7.351132E9,0E0,1.3291581E9,0E0,2.5487068E9,6.2321705E9,4.2730045E9,3.5974285E8,3.3043395E9,3.4706964E9,2.9982797E9,8.3425853E9,8.520682E7,4.608801E9,6.204042E9,1.2293078E8,1.9308171E8,1.6904919E9,8.429394E8,0E0,0E0,0E0,0E0,0E0,0E0,0E0,0E0,0E0,0E0,0E0,0E0,0E0,0E0,0E0,0E0,0E0,0E0,0E0,0E0],"parents":[2147483647,0,0,1,1,3,3,4,4,5,5,6,6,8,8,10,10,11,11,12,12,13,13,14,14,15,15,16,16,17,17,18,18,19,19,20,20,21,21,22,22,23,23,24,24],"right_children":[2,4,-1,6,8,10,12,-1,14,-1,16,18,20,22,24,26,28,30,32,34,36,38,40,42,44,-1,-1,-1,-1,-1,-1,-1,-1,-1,-1,-1,-1,-1,-1,-1,-1,-1,-1,-1,-1],"split_conditions":[1E0,1E1,-3.715159E2,6E0,2E0,2E0,7E0,-3.6832068E2,3E0,-3.6800977E2,1.5E1,6E0,4E0,2.1E1,6E0,1.2E1,1E0,2.1E1,3E0,2.1E1,2.2E1,2E0,7E0,3E0,1.1E1,5.752667E2,2.2282317E3,2.187877E3,-4.032928E2,4.383975E3,1.940542E3,-2.709092E2,-1.3017948E3,1.1510071E2,2.2925334E3,2.7269856E3,-9.41471E2,1.547539E1,-3.6167612E2,6.118032E2,-3.6057895E2,-1.6728311E2,1.526037E3,3.852739E2,1.2822697E2],"split_indices":[3,2,0,0,0,0,0,0,1,0,1,5,5,4,1,1,5,4,4,4,4,1,0,4,0,0,0,0,0,0,0,0,0,0,0,0,0,0,0,0,0,0,0,0,0],"split_type":[0,0,0,0,0,0,0,0,0,0,0,0,0,0,0,0,0,0,0,0,0,0,0,0,0,0,0,0,0,0,0,0,0,0,0,0,0,0,0,0,0,0,0,0,0],"sum_hessian":[2.5E3,1.066E3,1.434E3,4.11E2,6.55E2,2.61E2,1.5E2,4.6E1,6.09E2,4.2E1,2.19E2,6.7E1,8.3E1,5.8E1,5.51E2,1.74E2,4.5E1,6.3E1,4E0,5.1E1,3.2E1,4.9E1,9E0,3.8E1,5.13E2,1.61E2,1.3E1,4E0,4.1E1,2.4E1,3.9E1,2E0,2E0,3.9E1,1.2E1,2.7E1,5E0,1.1E1,3.8E1,7E0,2E0,7E0,3.1E1,2.65E2,2.48E2],"tree_param":{"num_deleted":"0","num_feature":"7","num_nodes":"45","size_leaf_vector":"1"}},{"base_weights":[4.7223164E1,4.607877E3,-3.3439023E2,8.555343E3,2.1216514E3,3.5393364E3,1.7201953E4,-3.3227228E2,2.537658E3,-3.3206464E2,4.8640635E3,2.4224682E4,1.1312104E4,-1.5433514E3,2.9692556E3,2.7293577E3,9.698103E3,5.306531E4,2.057776E4,2.0294584E4,5.675283E3,-2.5124634E3,3.4565427E3,1.0995206E4,2.3545059E3,6.41392E2,-5.795368E2,3.1570405E3,7.029181E2,7.859582E2,5.928967E3,2.86981E3,8.988503E2,1.1761403E3,5.5311475E3,-1.9820904E1,1.2780679E3,2.6323395E2,-2.8968622E2,-3.6045663E2,5.672391E2,1.5806926E3,3.090427E2,2.2170181E2,1.3625629E3],"categories":[],"categories_nodes":[],"categories_segments":[],"categories_sizes":[],"default_left":[0,0,0,0,0,0,0,0,0,0,0,0,0,0,0,0,0,0,0,0,0,0,0,0,0,0,0,0,0,0,0,0,0,0,0,0,0,0,0,0,0,0,0,0,0],"id":6,"left_children":[1,3,-1,5,7,9,11,-1,13,-1,15,17,19,21,23,25,27,29,31,33,35,37,39,41,43,-1,-1,-1,-1,-1,-1,-1,-1,-1,-1,-1,-1,-1,-1,-1,-1,-1,-1,-1,-1],"loss_changes":[3.869524E10,1.0453694E10,0E0,1.7808155E10,1.4942029E9,2.3971044E9,5.971751E9,0E0,1.0790088E9,0E0,2.2437658E9,6.060241E9,4.1379635E9,2.9456634E8,2.6976527E9,4.8742927E9,3.6892416E9,1.5036436E9,5.576786E9,8.911234E9,2.214408E9,1.0650832E8,1.7690995E8,1.4345375E9,7.663068E8,0E0,0E0,0E0,0E0,0E0,0E0,0E0,0E0,0E0,0E0,0E0,0E0,0E0,0E0,0E0,0E0,0E0,0E0,0E0,0E0],"parents":[2147483647,0,0,1,1,3,3,4,4,5,5,6,6,8,8,10,10,11,11,12,12,13,13,14,14,15,15,16,16,17,17,18,18,19,19,20,20,21,21,22,22,23,23,24,24],"right_children":[2,4,-1,6,8,10,12,-1,14,-1,16,18,20,22,24,26,28,30,32,34,36,38,40,42,44,-1,-1,-1,-1,-1,-1,-1,-1,-1,-1,-1,-1,-1,-1,-1,-1,-1,-1,-1,-1],"split_conditions":[1E0,1E1,-3.3439023E2,6E0,2E0,2E0,7E0,-3.3227228E2,3E0,-3.3206464E2,7E0,2E0,4E0,2.1E1,6E0,5E0,5E0,3E0,2.2E1,5E0,8E0,2E0,2E0,3E0,2.2E1,6.41392E2,-5.795368E2,3.1570405E3,7.029181E2,7.859582E2,5.928967E3,2.86981E3,8.988503E2,1.1761403E3,5.5311475E3,-1.9820904E1,1.2780679E3,2.6323395E2,-2.8968622E2,-3.6045663E2,5.672391E2,1.5806926E3,3.090427E2,2.2170181E2,1.3625629E3],"split_indices":[3,2,0,0,0,0,0,0,1,0,2,1,2,4,1,2,0,5,4,5,4,4,1,5,1,0,0,0,0,0,0,0,0,0,0,0,0,0,0,0,0,0,0,0,0],"split_type":[0,0,0,0,0,0,0,0,0,0,0,0,0,0,0,0,0,0,0,0,0,0,0,0,0,0,0,0,0,0,0,0,0,0,0,0,0,0,0,0,0,0,0,0,0],"sum_hessian":[2.5E3,1.066E3,1.434E3,4.11E2,6.55E2,2.61E2,1.5E2,4.6E1,6.09E2,4.2E1,2.19E2,6.7E1,8.3E1,5.8E1,5.51E2,1.53E2,6.6E1,6E0,6.1E1,3.1E1,5.2E1,4.9E1,9E0,3.8E1,5.13E2,1.07E2,4.6E1,6E0,6E1,1E0,5E0,3.5E1,2.6E1,2.6E1,5E0,2.9E1,2.3E1,3E0,4.6E1,2E0,7E0,2.3E1,1.5E1,5.08E2,5E0],"tree_param":{"num_deleted":"0","num_feature":"7","num_nodes":"45","size_leaf_vector":"1"}},{"base_weights":[5.2507393E1,4.1708574E3,-3.009745E2,7.753301E3,1.9145503E3,3.1991042E3,1.5603938E4,-2.9975204E2,2.2898826E3,-2.996304E2,4.3954834E3,2.1956383E4,1.0275721E4,3.5048813E3,9.5469617E2,6.2343467E3,-7.280986E2,4.8718055E4,1.858077E4,1.8474729E4,5.131495E3,1.6009202E3,7.2622534E3,2.0783516E3,-7.928286E2,1.0541887E3,1.9033095E2,-2.2170284E2,3.411964E2,7.466603E2,5.434886E3,2.8617703E3,1.0536938E3,1.0628822E3,5.0702183E3,-1.7904884E1,1.1555863E3,2.0643705E1,3.0332797E2,1.2065084E3,3.7163867E2,2.9827512E2,-3.32363E2,-1.184859E2,2.1949321E3],"categories":[],"categories_nodes":[],"categories_segments":[],"categories_sizes":[],"default_left":[0,0,0,0,0,0,0,0,0,0,0,0,0,0,0,0,0,0,0,0,0,0,0,0,0,0,0,0,0,0,0,0,0,0,0,0,0,0,0,0,0,0,0,0,0],"id":7,"left_children":[1,3,-1,5,7,9,11,-1,13,-1,15,17,19,21,23,25,27,29,31,33,35,37,39,41,43,-1,-1,-1,-1,-1,-1,-1,-1,-1,-1,-1,-1,-1,-1,-1,-1,-1,-1,-1,-1],"loss_changes":[3.155373E10,8.609815E9,0E0,1.4680457E10,1.2163044E9,1.9551296E9,4.8853115E9,0E0,9.862262E8,0E0,2.0772838E9,5.2377027E9,3.44811E9,2.2704645E9,5.750236E8,3.0022262E9,3.712559E8,1.2201533E9,4.704049E9,7.5524096E9,1.8102639E9,4.248203E8,1.7773932E9,8.795415E8,1.05130246E9,0E0,0E0,0E0,0E0,0E0,0E0,0E0,0E0,0E0,0E0,0E0,0E0,0E0,0E0,0E0,0E0,0E0,0E0,0E0,0E0],"parents":[2147483647,0,0,1,1,3,3,4,4,5,5,6,6,8,8,10,10,11,11,12,12,13,13,14,14,15,15,16,16,17,17,18,18,19,19,20,20,21,21,22,22,23,23,24,24],"right_children":[2,4,-1,6,8,10,12,-1,14,-1,16,18,20,22,24,26,28,30,32,34,36,38,40,42,44,-1,-1,-1,-1,-1,-1,-1,-1,-1,-1,-1,-1,-1,-1,-1,-1,-1,-1,-1,-1],"split_conditions":[1E0,1E1,-3.009745E2,6E0,2E0,2E0,7E0,-2.9975204E2,1.1E1,-2.996304E2,5E0,2E0,4E0,6E0,4E0,1.3E1,1.2E1,3E0,2.1E1,5E0,8E0,8E0,8E0,2.1E1,2.3E1,1.0541887E3,1.9033095E2,-2.2170284E2,3.411964E2,7.466603E2,5.434886E3,2.8617703E3,1.0536938E3,1.0628822E3,5.0702183E3,-1.7904884E1,1.1555863E3,2.0643705E1,3.0332797E2,1.2065084E3,3.7163867E2,2.9827512E2,-3.32363E2,-1.184859E2,2.1949321E3],"split_indices":[3,2,0,0,0,0,0,0,0,0,5,1,2,0,5,4,1,5,4,5,4,4,4,4,4,0,0,0,0,0,0,0,0,0,0,0,0,0,0,0,0,0,0,0,0],"split_type":[0,0,0,0,0,0,0,0,0,0,0,0,0,0,0,0,0,0,0,0,0,0,0,0,0,0,0,0,0,0,0,0,0,0,0,0,0,0,0,0,0,0,0,0,0],"sum_hessian":[2.5E3,1.066E3,1.434E3,4.11E2,6.55E2,2.61E2,1.5E2,4.6E1,6.09E2,4.2E1,2.19E2,6.7E1,8.3E1,3.18E2,2.91E2,1.61E2,5.8E1,6E0,6.1E1,3.1E1,5.2E1,2.12E2,1.06E2,1.77E2,1.14E2,8E1,8.1E1,4.3E1,1.5E1,1E0,5E0,2.6E1,3.5E1,2.6E1,5E0,2.9E1,2.3E1,1.08E2,1.04E2,4.4E1,6.2E1,1.52E2,2.5E1,1.13E2,1E0],"tree_param":{"num_deleted":"0","num_feature":"7","num_nodes":"45","size_leaf_vector":"1"}},{"base_weights":[5.596362E1,3.7744624E3,-2.70898E2,7.022709E3,1.7286512E3,2.8832563E3,1.41585625E4,-2.704146E2,2.0673608E3,3.767676E3,-4.9540137E3,1.990923E4,9.334706E3,-7.0844453E3,2.2316982E3,2.5854255E3,1.640671E4,1.6464922E2,-5.5479136E3,2.2140793E4,-1.2636599E3,4.5010513E3,1.6668504E4,-1.2631969E3,-9.1095135E2,3.5148298E3,8.662209E2,5.148947E2,-9.535861E1,3.1807318E2,3.5848086E3,-2.4303076E2,-6.625299E2,3.3903528E3,1.4235563E3,-2.20437E1,1.8682473E3,2.192197E3,-1.0625758E3,-5.089857E2,5.1083917E2,1.6365086E2,7.255585E2,-6.1977337E1,1.9667154E2],"categories":[],"categories_nodes":[],"categories_segments":[],"categories_sizes":[],"default_left":[0,0,0,0,0,0,0,0,0,0,0,0,0,0,0,0,0,0,0,0,0,0,0,0,0,0,0,0,0,0,0,0,0,0,0,0,0,0,0,0,0,0,0,0,0],"id":8,"left_children":[1,3,-1,5,7,9,11,-1,13,15,17,19,21,23,25,27,29,-1,31,33,-1,35,37,39,-1,41,43,-1,-1,-1,-1,-1,-1,-1,-1,-1,-1,-1,-1,-1,-1,-1,-1,-1,-1],"loss_changes":[2.5724105E10,7.078395E9,0E0,1.2129053E10,9.905289E8,1.834701E9,4.0029512E9,0E0,9.332411E8,3.4840123E9,1.1497574E8,5.2184924E9,2.902695E9,1.1816557E8,1.0482079E9,1.9736058E9,5.0286013E9,0E0,6.787002E7,5.468535E9,0E0,3.4859036E9,4.9647913E9,1.2352859E8,0E0,2.1592648E9,4.787348E8,0E0,0E0,0E0,0E0,0E0,0E0,0E0,0E0,0E0,0E0,0E0,0E0,0E0,0E0,0E0,0E0,0E0,0E0],"parents":[2147483647,0,0,1,1,3,3,4,4,5,5,6,6,8,8,9,9,10,10,11,11,12,12,13,13,14,14,15,15,16,16,18,18,19,19,21,21,22,22,23,23,25,25,26,26],"right_children":[2,4,-1,6,8,10,12,-1,14,16,18,20,22,24,26,28,30,-1,32,34,-1,36,38,40,-1,42,44,-1,-1,-1,-1,-1,-1,-1,-1,-1,-1,-1,-1,-1,-1,-1,-1,-1,-1],"split_conditions":[1E0,1E1,-2.70898E2,6E0,2E0,1.8E1,7E0,-2.704146E2,1E0,9E0,2E0,6E0,4E0,1E0,1.1E1,4E0,1.1E1,1.6464922E2,2E0,2.1E1,-1.2636599E3,2.1E1,2.2E1,4E0,-9.1095135E2,6E0,1.5E1,5.148947E2,-9.535861E1,3.1807318E2,3.5848086E3,-2.4303076E2,-6.625299E2,3.3903528E3,1.4235563E3,-2.20437E1,1.8682473E3,2.192197E3,-1.0625758E3,-5.089857E2,5.1083917E2,1.6365086E2,7.255585E2,-6.1977337E1,1.9667154E2],"split_indices":[3,2,0,0,0,1,0,0,6,2,4,5,5,4,0,5,1,0,0,4,0,4,4,1,0,0,0,0,0,0,0,0,0,0,0,0,0,0,0,0,0,0,0,0,0],"split_type":[0,0,0,0,0,0,0,0,0,0,0,0,0,0,0,0,0,0,0,0,0,0,0,0,0,0,0,0,0,0,0,0,0,0,0,0,0,0,0,0,0,0,0,0,0],"sum_hessian":[2.5E3,1.066E3,1.434E3,4.11E2,6.55E2,2.61E2,1.5E2,4.6E1,6.09E2,2.35E2,2.6E1,6.7E1,8.3E1,1E1,5.99E2,2.16E2,1.9E1,2E0,2.4E1,6.3E1,4E0,5.1E1,3.2E1,3E0,7E0,3.08E2,2.91E2,1.25E2,9.1E1,1.2E1,7E0,7E0,1.7E1,2.4E1,3.9E1,3.9E1,1.2E1,2.7E1,5E0,2E0,1E0,2.06E2,1.02E2,1.24E2,1.67E2],"tree_param":{"num_deleted":"0","num_feature":"7","num_nodes":"45","size_leaf_vector":"1"}},{"base_weights":[5.4238136E1,3.4063433E3,-2.4382707E2,6.344971E3,1.555549E3,2.6086006E3,1.2785926E4,-2.4394849E2,1.860813E3,-2.8799146E2,3.6694985E3,1.5376621E4,3.05627E3,-1.7756804E3,2.2461252E3,5.120409E3,-1.930042E3,-5.652162E3,1.7148541E4,2.716514E4,-2.2190693E3,-2.599196E3,2.5194653E3,9.292049E3,1.7071423E3,3.895082E2,1.8933453E3,1.5057039E3,-5.365083E2,-1.9807802E3,3.2442264E2,5.812922E3,1.3364476E3,-1.031448E3,3.6723962E3,9.7464545E2,-6.671694E2,2.3232202E2,-2.9628232E2,4.557394E2,-3.7548328E2,1.1217656E3,-6.045616E2,1.5870964E2,1.1606519E3],"categories":[],"categories_nodes":[],"categories_segments":[],"categories_sizes":[],"default_left":[0,0,0,0,0,0,0,0,0,0,0,0,0,0,0,0,0,0,0,0,0,0,0,0,0,0,0,0,0,0,0,0,0,0,0,0,0,0,0,0,0,0,0,0,0],"id":9,"left_children":[1,3,-1,5,7,9,11,-1,13,-1,15,17,19,21,23,25,27,29,31,33,35,37,39,41,43,-1,-1,-1,-1,-1,-1,-1,-1,-1,-1,-1,-1,-1,-1,-1,-1,-1,-1,-1,-1],"loss_changes":[2.0904542E10,5.793326E9,0E0,9.881756E9,8.045577E8,1.5361297E9,3.7591962E9,0E0,8.5871104E8,0E0,1.7972577E9,4.531024E9,4.257303E9,2.1523864E8,2.0804298E9,2.8882145E9,2.7649428E9,1.3236017E9,1.6281225E10,2.5283543E9,1.556809E9,9.637946E7,1.4497795E8,1.219656E9,5.9240666E8,0E0,0E0,0E0,0E0,0E0,0E0,0E0,0E0,0E0,0E0,0E0,0E0,0E0,0E0,0E0,0E0,0E0,0E0,0E0,0E0],"parents":[2147483647,0,0,1,1,3,3,4,4,5,5,6,6,8,8,10,10,11,11,12,12,13,13,14,14,15,15,16,16,17,17,18,18,19,19,20,20,21,21,22,22,23,23,24,24],"right_children":[2,4,-1,6,8,10,12,-1,14,-1,16,18,20,22,24,26,28,30,32,34,36,38,40,42,44,-1,-1,-1,-1,-1,-1,-1,-1,-1,-1,-1,-1,-1,-1,-1,-1,-1,-1,-1,-1],"split_conditions":[1E0,1E1,-2.4382707E2,6E0,2E0,2E0,1.1E1,-2.4394849E2,3E0,-2.8799146E2,1.5E1,2E0,2E0,2.1E1,6E0,1.2E1,3E0,7E0,3E0,1.3E1,2E0,2E0,7E0,5E0,2.2E1,3.895082E2,1.8933453E3,1.5057039E3,-5.365083E2,-1.9807802E3,3.2442264E2,5.812922E3,1.3364476E3,-1.031448E3,3.6723962E3,9.7464545E2,-6.671694E2,2.3232202E2,-2.9628232E2,4.557394E2,-3.7548328E2,1.1217656E3,-6.045616E2,1.5870964E2,1.1606519E3],"split_indices":[3,2,0,0,0,0,0,0,1,0,1,4,2,4,1,1,0,1,4,0,4,4,0,5,1,0,0,0,0,0,0,0,0,0,0,0,0,0,0,0,0,0,0,0,0],"split_type":[0,0,0,0,0,0,0,0,0,0,0,0,0,0,0,0,0,0,0,0,0,0,0,0,0,0,0,0,0,0,0,0,0,0,0,0,0,0,0,0,0,0,0,0,0],"sum_hessian":[2.5E3,1.066E3,1.434E3,4.11E2,6.55E2,2.61E2,1.5E2,4.6E1,6.09E2,4.2E1,2.19E2,1.18E2,3.2E1,5.8E1,5.51E2,1.74E2,4.5E1,9E0,1.09E2,5E0,2.7E1,4.9E1,9E0,3.8E1,5.13E2,1.61E2,1.3E1,7E0,3.8E1,3E0,6E0,8E0,1.01E2,1E0,4E0,7E0,2E1,3E0,4.6E1,7E0,2E0,3.4E1,4E0,5.08E2,5E0],"tree_param":{"num_deleted":"0","num_feature":"7","num_nodes":"45","size_leaf_vector":"1"}},{"base_weights":[5.392053E1,3.077906E3,-2.1946135E2,5.738157E3,1.4024465E3,2.359054E3,1.1563236E4,-6.62109E3,1.5368993E3,4.637631E3,-1.7536774E2,1.3885118E4,2.8399895E3,-1.3053921E3,-8.451303E2,-2.2007268E2,1.8271185E3,3.4237952E3,4.4445184E4,-1.6285316E3,4.9169688E3,-5.2525815E3,1.5498681E4,2.4888785E4,-1.9861805E3,-4.9229343E2,4.7736172E2,2.961163E3,6.207936E2,3.537136E3,2.4297496E2,1.2829067E3,6.964677E3,-7.384092E2,-6.613977E1,2.4400017E3,-4.096251E2,-1.8322217E3,2.9661502E2,5.296218E3,1.2041132E3,-9.798756E2,3.3786042E3,-5.8466473E2,1.0430455E3,1.3067625E2,6.257277E2,1.614017E2,-9.2194176E1],"categories":[],"categories_nodes":[],"categories_segments":[],"categories_sizes":[],"default_left":[0,0,0,0,0,0,0,0,0,0,0,0,0,0,0,0,0,0,0,0,0,0,0,0,0,0,0,0,0,0,0,0,0,0,0,0,0,0,0,0,0,0,0,0,0,0,0,0,0],"id":10,"left_children":[1,3,-1,5,7,9,11,13,15,17,19,21,23,25,-1,-1,27,29,31,33,35,37,39,41,43,-1,-1,45,47,-1,-1,-1,-1,-1,-1,-1,-1,-1,-1,-1,-1,-1,-1,-1,-1,-1,-1,-1,-1],"loss_changes":[1.7012391E10,4.747724E9,0E0,8.082343E9,7.178597E8,1.5138307E9,3.0189732E9,9.598512E7,7.0475725E8,6.515966E9,9.3300736E8,3.756114E9,3.5610043E9,1.114645E8,0E0,0E0,8.189773E8,4.2012974E9,2.2936023E9,5.406231E8,5.016888E9,1.1285046E9,1.3610785E10,2.1828058E9,1.4031354E9,0E0,0E0,1.6768284E9,4.4891402E8,0E0,0E0,0E0,0E0,0E0,0E0,0E0,0E0,0E0,0E0,0E0,0E0,0E0,0E0,0E0,0E0,0E0,0E0,0E0,0E0],"parents":[2147483647,0,0,1,1,3,3,4,4,5,5,6,6,7,7,8,8,9,9,10,10,11,11,12,12,13,13,16,16,17,17,18,18,19,19,20,20,21,21,22,22,23,23,24,24,27,27,28,28],"right_children":[2,4,-1,6,8,10,12,14,16,18,20,22,24,26,-1,-1,28,30,32,34,36,38,40,42,44,-1,-1,46,48,-1,-1,-1,-1,-1,-1,-1,-1,-1,-1,-1,-1,-1,-1,-1,-1,-1,-1,-1,-1],"split_conditions":[1E0,1E1,-2.1946135E2,6E0,1E0,1.3E1,1.1E1,1E0,2E0,1.2E1,8E0,2E0,2E0,4E0,-8.451303E2,-2.2007268E2,1.1E1,1E0,3E0,3E0,5E0,7E0,3E0,1.3E1,5E0,-4.9229343E2,4.7736172E2,6E0,4E0,3.537136E3,2.4297496E2,1.2829067E3,6.964677E3,-7.384092E2,-6.613977E1,2.4400017E3,-4.096251E2,-1.8322217E3,2.9661502E2,5.296218E3,1.2041132E3,-9.798756E2,3.3786042E3,-5.8466473E2,1.0430455E3,1.3067625E2,6.257277E2,1.614017E2,-9.2194176E1],"split_indices":[3,2,0,0,6,4,0,4,0,4,2,4,2,1,0,0,0,1,0,1,0,1,4,0,5,0,0,0,5,0,0,0,0,0,0,0,0,0,0,0,0,0,0,0,0,0,0,0,0],"split_type":[0,0,0,0,0,0,0,0,0,0,0,0,0,0,0,0,0,0,0,0,0,0,0,0,0,0,0,0,0,0,0,0,0,0,0,0,0,0,0,0,0,0,0,0,0,0,0,0,0],"sum_hessian":[2.5E3,1.066E3,1.434E3,4.11E2,6.55E2,2.61E2,1.5E2,1E1,6.45E2,1.37E2,1.24E2,1.18E2,3.2E1,3E0,7E0,4.6E1,5.99E2,1.34E2,3E0,9.7E1,2.7E1,9E0,1.09E2,5E0,2.7E1,2E0,1E0,3.08E2,2.91E2,3E0,1.31E2,2E0,1E0,1.3E1,8.4E1,8E0,1.9E1,3E0,6E0,8E0,1.01E2,1E0,4E0,2.1E1,6E0,2.06E2,1.02E2,1.77E2,1.14E2],"tree_param":{"num_deleted":"0","num_feature":"7","num_nodes":"49","size_leaf_vector":"1"}},{"base_weights":[5.6765724E1,2.789629E3,-1.9753053E2,5.2154956E3,1.261814E3,2.1737346E3,1.0458713E4,-1.7754567E3,1.5818246E3,-2.2594128E3,3.38983E3,1.5169632E4,6.5206035E3,-3.5571594E3,-1.5114676E2,6.7923E3,1.1526368E3,-7.7815894E3,2.2979622E3,8.741562E3,-1.4802438E2,4.105054E4,1.2002923E4,1.2898437E4,2.5468064E3,1.2823251E3,-4.3510156E3,-9.683561E2,3.139283E3,3.1662634E3,1.6500045E4,-5.8471816E3,1.2667434E3,-8.408305E2,3.9431476E2,2.4238794E3,-8.075992E1,8.058816E3,6.859651E2,-5.0332697E2,1.1858105E2,5.111213E2,4.618856E3,1.4122773E3,-1.4987931E3,6.4867114E2,3.9601462E3,-2.455832E2,8.6939874E2,2.7985638E2,-2.391315E2,-4.690782E2,-2.4366646E2,-2.4035106E2,2.3284715E2,-3.2774454E2,4.7549786E2,-1.7904636E2,8.228312E2,4.692211E3,5.723421E2,4.5349365E2,-7.7118134E2,-3.126611E2,1.4410608E2],"categories":[],"categories_nodes":[],"categories_segments":[],"categories_sizes":[],"default_left":[0,0,0,0,0,0,0,0,0,0,0,0,0,0,0,0,0,0,0,0,0,0,0,0,0,0,0,0,0,0,0,0,0,0,0,0,0,0,0,0,0,0,0,0,0,0,0,0,0,0,0,0,0,0,0,0,0,0,0,0,0,0,0,0,0],"id":11,"left_children":[1,3,-1,5,7,9,11,13,15,17,19,21,23,25,27,29,31,33,35,37,39,41,43,45,47,49,51,53,55,57,59,61,63,-1,-1,-1,-1,-1,-1,-1,-1,-1,-1,-1,-1,-1,-1,-1,-1,-1,-1,-1,-1,-1,-1,-1,-1,-1,-1,-1,-1,-1,-1,-1,-1],"loss_changes":[1.3894494E10,3.9480156E9,0E0,6.548094E9,6.4041325E8,1.420135E9,2.7024558E9,1.8178669E8,1.3205165E9,1.4523799E9,3.9016253E9,5.080371E9,2.096064E9,1.2083507E8,9.446491E7,1.5317851E9,4.4670554E8,2.2420493E8,2.2000102E9,1.0534319E10,8.2048237E8,1.0565171E9,3.7591E9,5.2219146E9,1.6512137E9,3.454282E7,5.481344E6,1.380773E8,8.815654E7,8.678331E8,3.6656113E9,2.0920205E8,4.1958995E8,0E0,0E0,0E0,0E0,0E0,0E0,0E0,0E0,0E0,0E0,0E0,0E0,0E0,0E0,0E0,0E0,0E0,0E0,0E0,0E0,0E0,0E0,0E0,0E0,0E0,0E0,0E0,0E0,0E0,0E0,0E0,0E0],"parents":[2147483647,0,0,1,1,3,3,4,4,5,5,6,6,7,7,8,8,9,9,10,10,11,11,12,12,13,13,14,14,15,15,16,16,17,17,18,18,19,19,20,20,21,21,22,22,23,23,24,24,25,25,26,26,27,27,28,28,29,29,30,30,31,31,32,32],"right_children":[2,4,-1,6,8,10,12,14,16,18,20,22,24,26,28,30,32,34,36,38,40,42,44,46,48,50,52,54,56,58,60,62,64,-1,-1,-1,-1,-1,-1,-1,-1,-1,-1,-1,-1,-1,-1,-1,-1,-1,-1,-1,-1,-1,-1,-1,-1,-1,-1,-1,-1,-1,-1,-1,-1],"split_conditions":[1E0,1E1,-1.9753053E2,6E0,3E0,4E0,7E0,7E0,6E0,4E0,1.3E1,2E0,4E0,2E0,1.3E1,5E0,1E0,1.9E1,3E0,1E0,4E0,3E0,6E0,5E0,8E0,6E0,6E0,2.1E1,8E0,6E0,2E0,1E0,1E0,-8.408305E2,3.9431476E2,2.4238794E3,-8.075992E1,8.058816E3,6.859651E2,-5.0332697E2,1.1858105E2,5.111213E2,4.618856E3,1.4122773E3,-1.4987931E3,6.4867114E2,3.9601462E3,-2.455832E2,8.6939874E2,2.7985638E2,-2.391315E2,-4.690782E2,-2.4366646E2,-2.4035106E2,2.3284715E2,-3.2774454E2,4.7549786E2,-1.7904636E2,8.228312E2,4.692211E3,5.723421E2,4.5349365E2,-7.7118134E2,-3.126611E2,1.4410608E2],"split_indices":[3,2,0,0,1,4,0,4,1,5,4,1,2,4,0,1,6,1,1,1,1,5,5,5,4,0,5,4,4,4,5,4,4,0,0,0,0,0,0,0,0,0,0,0,0,0,0,0,0,0,0,0,0,0,0,0,0,0,0,0,0,0,0,0,0],"split_type":[0,0,0,0,0,0,0,0,0,0,0,0,0,0,0,0,0,0,0,0,0,0,0,0,0,0,0,0,0,0,0,0,0,0,0,0,0,0,0,0,0,0,0,0,0,0,0,0,0,0,0,0,0,0,0,0,0,0,0,0,0,0,0,0,0],"sum_hessian":[2.5E3,1.066E3,1.434E3,4.11E2,6.55E2,2.61E2,1.5E2,6.2E1,5.93E2,5.6E1,2.05E2,6.7E1,8.3E1,2.9E1,3.3E1,4.4E1,5.49E2,2.5E1,3.1E1,8.1E1,1.24E2,6E0,6.1E1,3.1E1,5.2E1,4E0,2.5E1,2.7E1,6E0,3.3E1,1.1E1,8E0,5.41E2,2.4E1,1E0,3E0,2.8E1,1E0,8E1,2.6E1,9.8E1,1E0,5E0,5.7E1,4E0,2.6E1,5E0,2.9E1,2.3E1,3E0,1E0,2E1,5E0,1.9E1,8E0,1E0,5E0,1.7E1,1.6E1,2E0,9E0,1E0,7E0,2E1,5.21E2],"tree_param":{"num_deleted":"0","num_feature":"7","num_nodes":"65","size_leaf_vector":"1"}},{"base_weights":[6.117531E1,3.3680237E3,-1.3383448E3,1.1898644E3,8.387023E3,-1.7546659E3,2.1685803E3,-2.5896204E3,1.9657539E3,1.0447543E4,3.0402842E3,-7.2520355E2,-1.7430437E3,2.9239636E3,1.4170839E3,-3.0824008E2,-2.0836807E2,-1.329969E3,2.9754155E3,3.6198765E3,1.4323393E4,2.758478E4,-9.5865753E2,-1.9770668E3,-1.5777228E3,2.6619253E3,-1.8570536E3,-2.6250242E3,3.7902449E3,6.0675425E3,8.677363E2,-1.4258511E4,9.371093E3,2.1882418E4,7.3285635E3,3.5675994E3,-4.8964682E2,1.2945792E4,-4.262794E3,-5.0504673E3,-1.7874063E2,1.479438E2,-1.7800629E3,1.7471854E3,9.241762E3,-4.5126826E3,3.7196567E3,3.493879E2,-3.7238916E2,3.1690334E3,8.107238E1,7.655875E3,4.961904E2,-2.4592969E2,2.706421E2,5.6628284E2,-1.9710748E3,1.4516724E3,-8.3210736E2,4.8077847E3,1.6371802E3,-7.3835596E2,8.6272314E2,4.338378E2,-5.0728482E2,-1.5130477E3,2.0866128E3,1.5269442E3,-6.486565E2,-5.731251E2,9.728869E2,3.1712247E2,-2.700398E2,-4.301849E2,-1.7687488E2,1.075328E3,1.16870476E2,-9.985309E2,1.4446879E3,-5.428578E2,3.942646E2,6.0628296E2,-5.411362E2],"categories":[],"categories_nodes":[],"categories_segments":[],"categories_sizes":[],"default_left":[0,0,0,0,0,0,0,0,0,0,0,0,0,0,0,0,0,0,0,0,0,0,0,0,0,0,0,0,0,0,0,0,0,0,0,0,0,0,0,0,0,0,0,0,0,0,0,0,0,0,0,0,0,0,0,0,0,0,0,0,0,0,0,0,0,0,0,0,0,0,0,0,0,0,0,0,0,0,0,0,0,0,0],"id":12,"left_children":[1,3,5,7,9,11,13,15,17,19,21,-1,23,-1,25,-1,-1,27,29,31,33,35,37,39,41,43,45,47,49,51,53,55,57,59,61,-1,63,65,67,69,-1,71,73,75,77,79,81,-1,-1,-1,-1,-1,-1,-1,-1,-1,-1,-1,-1,-1,-1,-1,-1,-1,-1,-1,-1,-1,-1,-1,-1,-1,-1,-1,-1,-1,-1,-1,-1,-1,-1,-1,-1],"loss_changes":[1.1579139E10,8.123563E9,2.5704973E9,1.5299711E9,2.4470743E9,8.779622E7,3.7628562E9,1.5766528E7,1.4414651E9,4.2351596E9,6.308173E9,0E0,5.7622016E7,0E0,7.5081146E8,0E0,0E0,6.863074E8,2.151932E9,6.302966E9,5.285665E9,2.0618742E9,2.6279483E9,3.6752794E8,3.232471E8,7.843586E8,7.72079E8,5.643676E8,1.7200148E9,1.006379E10,1.217894E9,1.7408563E9,4.308514E9,6.286172E9,1.1145382E9,0E0,8.839136E7,2.7618222E9,2.0970665E9,4.28035E8,0E0,8.5247456E8,1.601536E7,6.021952E8,1.7455228E9,2.9244966E8,3.9653267E8,0E0,0E0,0E0,0E0,0E0,0E0,0E0,0E0,0E0,0E0,0E0,0E0,0E0,0E0,0E0,0E0,0E0,0E0,0E0,0E0,0E0,0E0,0E0,0E0,0E0,0E0,0E0,0E0,0E0,0E0,0E0,0E0,0E0,0E0,0E0,0E0],"parents":[2147483647,0,0,1,1,2,2,3,3,4,4,5,5,6,6,7,7,8,8,9,9,10,10,12,12,14,14,17,17,18,18,19,19,20,20,21,21,22,22,23,23,24,24,25,25,26,26,27,27,28,28,29,29,30,30,31,31,32,32,33,33,34,34,36,36,37,37,38,38,39,39,41,41,42,42,43,43,44,44,45,45,46,46],"right_children":[2,4,6,8,10,12,14,16,18,20,22,-1,24,-1,26,-1,-1,28,30,32,34,36,38,40,42,44,46,48,50,52,54,56,58,60,62,-1,64,66,68,70,-1,72,74,76,78,80,82,-1,-1,-1,-1,-1,-1,-1,-1,-1,-1,-1,-1,-1,-1,-1,-1,-1,-1,-1,-1,-1,-1,-1,-1,-1,-1,-1,-1,-1,-1,-1,-1,-1,-1,-1,-1],"split_conditions":[1.1E1,6E0,1.5E1,2E0,2.2E1,1.2E1,2E0,1E1,4E0,1.1E1,5E0,-7.2520355E2,3E0,2.9239636E3,1.2E1,-3.0824008E2,-2.0836807E2,1.4E1,1.3E1,5E0,9E0,1E1,3E0,1E0,1.3E1,1.2E1,5E0,3E0,1.5E1,1E0,1.1E1,1E0,8E0,3E0,1E0,3.5675994E3,7E0,2E0,2E0,2.3E1,-1.7874063E2,4E0,1E0,9E0,7E0,2.1E1,9E0,3.493879E2,-3.7238916E2,3.1690334E3,8.107238E1,7.655875E3,4.961904E2,-2.4592969E2,2.706421E2,5.6628284E2,-1.9710748E3,1.4516724E3,-8.3210736E2,4.8077847E3,1.6371802E3,-7.3835596E2,8.6272314E2,4.338378E2,-5.0728482E2,-1.5130477E3,2.0866128E3,1.5269442E3,-6.486565E2,-5.731251E2,9.728869E2,3.1712247E2,-2.700398E2,-4.301849E2,-1.7687488E2,1.075328E3,1.16870476E2,-9.985309E2,1.4446879E3,-5.428578E2,3.942646E2,6.0628296E2,-5.411362E2],"split_indices":[0,0,0,0,4,0,2,2,4,1,1,0,5,0,1,0,0,1,4,2,2,2,5,3,0,4,5,1,1,1,1,2,1,4,6,0,0,2,2,4,0,5,3,2,2,1,4,0,0,0,0,0,0,0,0,0,0,0,0,0,0,0,0,0,0,0,0,0,0,0,0,0,0,0,0,0,0,0,0,0,0,0,0],"split_type":[0,0,0,0,0,0,0,0,0,0,0,0,0,0,0,0,0,0,0,0,0,0,0,0,0,0,0,0,0,0,0,0,0,0,0,0,0,0,0,0,0,0,0,0,0,0,0,0,0,0,0,0,0,0,0,0,0,0,0,0,0,0,0,0,0,0,0,0,0,0,0,0,0,0,0,0,0,0,0,0,0,0,0],"sum_hessian":[2.5E3,7.43E2,1.757E3,5.19E2,2.24E2,1.571E3,1.86E2,8.8E1,4.31E2,1.61E2,6.3E1,2E0,1.569E3,4E0,1.82E2,4.2E1,4.6E1,1.01E2,3.3E2,5.9E1,1.02E2,8E0,5.5E1,6.45E2,9.24E2,1.32E2,5E1,8.1E1,2E1,1.33E2,1.97E2,1.4E1,4.5E1,4.8E1,5.4E1,6E0,2E0,1E1,4.5E1,3.6E1,6.09E2,9.7E1,8.27E2,1.17E2,1.5E1,3.4E1,1.6E1,1.2E1,6.9E1,1E0,1.9E1,1E0,1.32E2,7E1,1.27E2,3E0,1.1E1,3.5E1,1E1,7E0,4.1E1,4E0,5E1,1E0,1E0,2E0,8E0,4E0,4.1E1,3.5E1,1E0,4.7E1,5E1,2E0,8.25E2,6E0,1.11E2,3E0,1.2E1,3.1E1,3E0,1.3E1,3E0],"tree_param":{"num_deleted":"0","num_feature":"7","num_nodes":"83","size_leaf_vector":"1"}},{"base_weights":[6.506663E1,3.060277E3,-1.202568E3,1.091815E3,7.5960103E3,-1.5798762E3,1.9756736E3,-2.336463E3,1.7955763E3,1.0913134E4,4.654738E3,-6.768567E2,-1.5689552E3,2.6900465E4,1.2838724E3,-2.7813289E3,-1.879746E2,-6.8485854E3,2.166177E3,8.0359927E3,2.3513037E4,2.1758418E3,8.943355E3,-1.779018E3,-1.4205558E3,2.9785327E3,7.680508E2,2.4080515E3,-1.6729844E3,-2.18117E3,-3.0898496E3,-9.566073E3,-1.2116652E3,6.181163E3,1.1438126E3,-5.3583354E3,1.2651894E4,1.1278422E4,4.287546E4,2.0906674E4,8.8084174E2,1.4461348E4,-6.711835E2,-4.534616E3,-1.6089587E2,1.3362991E2,-1.6027897E3,1.5825704E3,8.345471E3,-4.06566E3,3.3515232E3,-7.348608E1,-2.3160295E2,-1.8724794E2,-3.290534E2,-1.025055E3,-4.0957913E2,-3.6923703E2,6.8362823E2,4.6750754E2,3.5134148E3,2.1143492E2,-2.8753812E2,-9.566103E2,4.360627E3,2.0443479E3,1.7822912E1,2.1455625E3,-5.099848E1,8.9379047E2,6.6094155E3,3.68853E2,3.1155928E3,-7.851329E1,8.758502E2,3.611277E3,9.348079E2,-6.951325E2,1.5791421E3,-5.174046E2,9.242426E2,6.98348E2,-9.961528E1,-4.0150595E2,-1.592088E2,9.8315704E2,1.05287796E2,-9.2364105E2,1.3113322E3,2.7888986E2,-5.0400836E2,5.499853E2,-5.00551E2],"categories":[],"categories_nodes":[],"categories_segments":[],"categories_sizes":[],"default_left":[0,0,0,0,0,0,0,0,0,0,0,0,0,0,0,0,0,0,0,0,0,0,0,0,0,0,0,0,0,0,0,0,0,0,0,0,0,0,0,0,0,0,0,0,0,0,0,0,0,0,0,0,0,0,0,0,0,0,0,0,0,0,0,0,0,0,0,0,0,0,0,0,0,0,0,0,0,0,0,0,0,0,0,0,0,0,0,0,0,0,0,0,0],"id":13,"left_children":[1,3,5,7,9,11,13,15,17,19,21,-1,23,25,27,29,-1,31,33,35,37,39,41,43,45,-1,-1,47,49,51,53,55,57,59,61,63,65,67,69,71,73,75,77,79,-1,81,83,85,87,89,91,-1,-1,-1,-1,-1,-1,-1,-1,-1,-1,-1,-1,-1,-1,-1,-1,-1,-1,-1,-1,-1,-1,-1,-1,-1,-1,-1,-1,-1,-1,-1,-1,-1,-1,-1,-1,-1,-1,-1,-1,-1,-1],"loss_changes":[9.499558E9,6.6344504E9,2.1112742E9,1.2587939E9,2.144429E9,7.845862E7,3.1899044E9,1.2854656E7,1.3987617E9,3.6174787E9,1.2668961E9,0E0,4.6415104E7,4.846797E7,6.123273E8,1.222432E6,0E0,2.6413786E8,1.6964132E9,5.446733E9,4.0173763E9,1.8735859E9,2.3440366E9,2.9542938E8,2.621975E8,0E0,0E0,6.38656E8,6.26749E8,1.808928E6,1.90544E5,2.9472E6,1.6499418E8,3.4986273E9,1.3011366E9,5.1558697E9,6.313681E9,1.5705912E9,4.9251584E9,7.674463E8,9.7805126E8,2.7622825E9,1.8673586E9,3.7377043E8,0E0,7.6536314E8,1.4982784E7,5.0524173E8,1.4623645E9,2.4782982E8,3.3274176E8,0E0,0E0,0E0,0E0,0E0,0E0,0E0,0E0,0E0,0E0,0E0,0E0,0E0,0E0,0E0,0E0,0E0,0E0,0E0,0E0,0E0,0E0,0E0,0E0,0E0,0E0,0E0,0E0,0E0,0E0,0E0,0E0,0E0,0E0,0E0,0E0,0E0,0E0,0E0,0E0,0E0,0E0],"parents":[2147483647,0,0,1,1,2,2,3,3,4,4,5,5,6,6,7,7,8,8,9,9,10,10,12,12,13,13,14,14,15,15,17,17,18,18,19,19,20,20,21,21,22,22,23,23,24,24,27,27,28,28,29,29,30,30,31,31,32,32,33,33,34,34,35,35,36,36,37,37,38,38,39,39,40,40,41,41,42,42,43,43,45,45,46,46,47,47,48,48,49,49,50,50],"right_children":[2,4,6,8,10,12,14,16,18,20,22,-1,24,26,28,30,-1,32,34,36,38,40,42,44,46,-1,-1,48,50,52,54,56,58,60,62,64,66,68,70,72,74,76,78,80,-1,82,84,86,88,90,92,-1,-1,-1,-1,-1,-1,-1,-1,-1,-1,-1,-1,-1,-1,-1,-1,-1,-1,-1,-1,-1,-1,-1,-1,-1,-1,-1,-1,-1,-1,-1,-1,-1,-1,-1,-1,-1,-1,-1,-1,-1,-1],"split_conditions":[1.1E1,6E0,1.5E1,2E0,8E0,1.2E1,2E0,1E1,1E0,7E0,4E0,-6.768567E2,3E0,6E0,1.2E1,8E0,-1.879746E2,5E0,5E0,1.1E1,5E0,2E0,6E0,1E0,1.3E1,2.9785327E3,7.680508E2,1.2E1,5E0,2E0,4E0,2.1E1,2.3E1,3E0,1.5E1,6E0,5E0,2E0,1E0,1E0,1.5E1,1E1,8E0,2.3E1,-1.6089587E2,6E0,1E0,9E0,7E0,1E0,9E0,-7.348608E1,-2.3160295E2,-1.8724794E2,-3.290534E2,-1.025055E3,-4.0957913E2,-3.6923703E2,6.8362823E2,4.6750754E2,3.5134148E3,2.1143492E2,-2.8753812E2,-9.566103E2,4.360627E3,2.0443479E3,1.7822912E1,2.1455625E3,-5.099848E1,8.9379047E2,6.6094155E3,3.68853E2,3.1155928E3,-7.851329E1,8.758502E2,3.611277E3,9.348079E2,-6.951325E2,1.5791421E3,-5.174046E2,9.242426E2,6.98348E2,-9.961528E1,-4.0150595E2,-1.592088E2,9.8315704E2,1.05287796E2,-9.2364105E2,1.3113322E3,2.7888986E2,-5.0400836E2,5.499853E2,-5.00551E2],"split_indices":[0,0,0,0,2,0,2,2,6,2,5,0,5,1,1,1,0,5,0,1,5,4,5,3,0,0,0,4,5,2,4,4,4,0,1,2,2,1,4,4,1,2,0,4,0,4,3,2,2,5,4,0,0,0,0,0,0,0,0,0,0,0,0,0,0,0,0,0,0,0,0,0,0,0,0,0,0,0,0,0,0,0,0,0,0,0,0,0,0,0,0,0,0],"split_type":[0,0,0,0,0,0,0,0,0,0,0,0,0,0,0,0,0,0,0,0,0,0,0,0,0,0,0,0,0,0,0,0,0,0,0,0,0,0,0,0,0,0,0,0,0,0,0,0,0,0,0,0,0,0,0,0,0,0,0,0,0,0,0,0,0,0,0,0,0,0,0,0,0,0,0,0,0,0,0,0,0,0,0,0,0,0,0,0,0,0,0,0,0],"sum_hessian":[2.5E3,7.43E2,1.757E3,5.19E2,2.24E2,1.571E3,1.86E2,8.8E1,4.31E2,1.04E2,1.2E2,2E0,1.569E3,4E0,1.82E2,4.2E1,4.6E1,1.7E1,4.14E2,8.6E1,1.8E1,7.7E1,4.3E1,6.45E2,9.24E2,3E0,1E0,1.32E2,5E1,1.7E1,2.5E1,1.1E1,6E0,8.3E1,3.31E2,2.2E1,6.4E1,1.2E1,6E0,4E0,7.3E1,2.7E1,1.6E1,3.6E1,6.09E2,9.7E1,8.27E2,1.17E2,1.5E1,3.4E1,1.6E1,2E0,1.5E1,5E0,2E1,9E0,2E0,5E0,1E0,8E1,3E0,2.67E2,6.4E1,2.1E1,1E0,3.9E1,2.5E1,6E0,6E0,3E0,3E0,2E0,2E0,6.1E1,1.2E1,4E0,2.3E1,1.2E1,4E0,3.5E1,1E0,1.3E1,8.4E1,2E0,8.25E2,6E0,1.11E2,3E0,1.2E1,4E0,3E1,1.3E1,3E0],"tree_param":{"num_deleted":"0","num_feature":"7","num_nodes":"93","size_leaf_vector":"1"}},{"base_weights":[7.103705E1,2.7899363E3,-1.0796638E3,9.860474E2,6.9465244E3,-1.4221385E3,1.8050956E3,1.866355E3,-1.4885815E3,8.707783E3,2.3797993E3,-6.317329E2,-1.4118789E3,2.4959734E4,1.1625913E3,-8.729019E3,2.2022212E3,-3.4233386E3,2.0559482E3,4.7236772E3,1.4580622E4,2.428083E4,-1.1825055E3,-1.6007355E3,-1.2784592E3,2.7551426E4,7.2964844E2,-5.227013E3,1.6016184E3,-1.0772478E4,-5.73048E3,-2.0386705E3,3.1374448E3,-6.8222003E2,-5.026458E3,-2.6214739E3,5.1056978E3,-8.1959436E2,8.099426E3,-5.726994E3,1.8823414E4,3.1539895E3,-7.505957E2,1.1102074E4,-4.0944158E3,-4.070159E3,-1.4483266E2,1.2637651E2,-1.443188E3,3.1444119E3,7.936676E2,-9.861096E3,2.287395E3,2.455937E3,1.0487626E3,-1.1681007E3,-3.1149155E2,-6.9514886E2,7.9778465E1,-2.3742088E2,-1.6933762E2,8.639958E2,1.7321664E2,-4.450582E2,5.7474866E2,8.696755E1,-6.3271326E2,1.4839912E2,-3.1600806E2,-5.4867914E2,7.4436676E2,3.211688E2,-1.2428353E3,2.4654824E3,5.4967847E2,-1.7872668E3,-1.510592E2,2.503194E3,2.513669E2,4.160716E2,-5.2866095E2,-1.4484359E3,1.8397323E3,1.3612792E3,-6.104931E2,-4.6710138E2,8.7803046E2,2.825255E2,-2.4162227E2,-3.7473886E2,-1.433072E2,-1.19766E3,5.6469727E2,-6.147357E1,2.9070886E2],"categories":[],"categories_nodes":[],"categories_segments":[],"categories_sizes":[],"default_left":[0,0,0,0,0,0,0,0,0,0,0,0,0,0,0,0,0,0,0,0,0,0,0,0,0,0,0,0,0,0,0,0,0,0,0,0,0,0,0,0,0,0,0,0,0,0,0,0,0,0,0,0,0,0,0,0,0,0,0,0,0,0,0,0,0,0,0,0,0,0,0,0,0,0,0,0,0,0,0,0,0,0,0,0,0,0,0,0,0,0,0,0,0,0,0],"id":14,"left_children":[1,3,5,7,9,11,13,15,17,19,21,-1,23,25,27,29,31,33,35,37,39,41,43,45,47,49,-1,51,53,55,57,59,61,63,65,67,69,71,73,75,77,-1,79,81,83,85,-1,87,89,-1,-1,91,-1,-1,93,-1,-1,-1,-1,-1,-1,-1,-1,-1,-1,-1,-1,-1,-1,-1,-1,-1,-1,-1,-1,-1,-1,-1,-1,-1,-1,-1,-1,-1,-1,-1,-1,-1,-1,-1,-1,-1,-1,-1,-1],"loss_changes":[7.82774E9,5.571679E9,1.7393957E9,1.1355643E9,1.7889935E9,7.003136E7,2.7529728E9,1.3857368E9,9.465573E8,3.721603E9,5.0218737E9,0E0,3.7513216E7,2.7859712E7,5.2172506E8,1.1797248E7,1.4857821E9,3.8766707E8,7.1236774E8,1.840482E9,5.7082655E9,1.6590162E9,2.0486659E9,2.3723494E8,2.1424294E8,5.585536E7,0E0,1.7882286E9,2.157323E9,5.357312E6,6.134323E7,3.858016E6,2.3511985E9,8.493813E8,4.349637E8,4.8914144E7,7.837894E8,1.8182468E9,2.4928317E9,5.875342E8,5.40509E9,0E0,8.88294E7,2.3197263E9,1.7207328E9,3.2669965E8,0E0,6.793187E8,1.3929856E7,0E0,0E0,4.2851277E8,0E0,0E0,5.242206E8,0E0,0E0,0E0,0E0,0E0,0E0,0E0,0E0,0E0,0E0,0E0,0E0,0E0,0E0,0E0,0E0,0E0,0E0,0E0,0E0,0E0,0E0,0E0,0E0,0E0,0E0,0E0,0E0,0E0,0E0,0E0,0E0,0E0,0E0,0E0,0E0,0E0,0E0,0E0,0E0],"parents":[2147483647,0,0,1,1,2,2,3,3,4,4,5,5,6,6,7,7,8,8,9,9,10,10,12,12,13,13,14,14,15,15,16,16,17,17,18,18,19,19,20,20,21,21,22,22,23,23,24,24,25,25,27,27,28,28,29,29,30,30,31,31,32,32,33,33,34,34,35,35,36,36,37,37,38,38,39,39,40,40,42,42,43,43,44,44,45,45,47,47,48,48,51,51,54,54],"right_children":[2,4,6,8,10,12,14,16,18,20,22,-1,24,26,28,30,32,34,36,38,40,42,44,46,48,50,-1,52,54,56,58,60,62,64,66,68,70,72,74,76,78,-1,80,82,84,86,-1,88,90,-1,-1,92,-1,-1,94,-1,-1,-1,-1,-1,-1,-1,-1,-1,-1,-1,-1,-1,-1,-1,-1,-1,-1,-1,-1,-1,-1,-1,-1,-1,-1,-1,-1,-1,-1,-1,-1,-1,-1,-1,-1,-1,-1,-1,-1],"split_conditions":[1.1E1,6E0,1.5E1,5E0,2.2E1,1.2E1,2E0,1E0,1.9E1,4E0,5E0,-6.317329E2,3E0,6E0,7E0,4E0,2E0,3E0,3E0,1.1E1,2E0,1E1,3E0,1E0,1.3E1,9E0,7.2964844E2,6E0,9E0,8E0,2.1E1,1E1,5E0,2E0,3E0,1E0,4E0,8E0,2E0,5E0,6E0,3.1539895E3,7E0,2E0,2E0,2.3E1,-1.4483266E2,4E0,1E0,3.1444119E3,7.936676E2,1.3E1,2.287395E3,2.455937E3,7E0,-1.1681007E3,-3.1149155E2,-6.9514886E2,7.9778465E1,-2.3742088E2,-1.6933762E2,8.639958E2,1.7321664E2,-4.450582E2,5.7474866E2,8.696755E1,-6.3271326E2,1.4839912E2,-3.1600806E2,-5.4867914E2,7.4436676E2,3.211688E2,-1.2428353E3,2.4654824E3,5.4967847E2,-1.7872668E3,-1.510592E2,2.503194E3,2.513669E2,4.160716E2,-5.2866095E2,-1.4484359E3,1.8397323E3,1.3612792E3,-6.104931E2,-4.6710138E2,8.7803046E2,2.825255E2,-2.4162227E2,-3.7473886E2,-1.433072E2,-1.19766E3,5.6469727E2,-6.147357E1,2.9070886E2],"split_indices":[0,0,0,5,4,0,2,6,4,5,1,0,5,1,2,1,0,4,0,1,4,2,5,3,0,4,0,5,2,2,4,2,0,4,2,6,2,1,2,2,5,0,0,2,2,4,0,5,3,0,0,1,0,0,4,0,0,0,0,0,0,0,0,0,0,0,0,0,0,0,0,0,0,0,0,0,0,0,0,0,0,0,0,0,0,0,0,0,0,0,0,0,0,0,0],"split_type":[0,0,0,0,0,0,0,0,0,0,0,0,0,0,0,0,0,0,0,0,0,0,0,0,0,0,0,0,0,0,0,0,0,0,0,0,0,0,0,0,0,0,0,0,0,0,0,0,0,0,0,0,0,0,0,0,0,0,0,0,0,0,0,0,0,0,0,0,0,0,0,0,0,0,0,0,0,0,0,0,0,0,0,0,0,0,0,0,0,0,0,0,0,0,0],"sum_hessian":[2.5E3,7.43E2,1.757E3,5.19E2,2.24E2,1.571E3,1.86E2,3.83E2,1.36E2,1.61E2,6.3E1,2E0,1.569E3,4E0,1.82E2,1.1E1,3.72E2,8.8E1,4.8E1,9.7E1,6.4E1,8E0,5.5E1,6.45E2,9.24E2,3E0,1E0,1.1E1,1.71E2,5E0,6E0,6.7E1,3.05E2,3.3E1,5.5E1,1.9E1,2.9E1,3.7E1,6E1,1.1E1,5.3E1,6E0,2E0,1E1,4.5E1,3.6E1,6.09E2,9.7E1,8.27E2,2E0,1E0,1E1,1E0,3E0,1.68E2,4E0,1E0,5E0,1E0,3.1E1,3.6E1,6.1E1,2.44E2,2.1E1,1.2E1,1E1,4.5E1,2E0,1.7E1,5E0,2.4E1,2.8E1,9E0,7E0,5.3E1,2E0,9E0,3.8E1,1.5E1,1E0,1E0,2E0,8E0,4E0,4.1E1,3.5E1,1E0,4.7E1,5E1,2E0,8.25E2,9E0,1E0,8.9E1,7.9E1],"tree_param":{"num_deleted":"0","num_feature":"7","num_nodes":"95","size_leaf_vector":"1"}},{"base_weights":[6.92933E1,2.5179866E3,-9.6705316E2,8.8388007E2,6.283397E3,-1.2804608E3,1.6727537E3,1.306922E3,-3.4013486E3,9.150951E3,3.743095E3,-5.896174E2,-1.2708254E3,2.3397307E4,1.0700459E3,-1.303831E3,2.1088433E3,-7.4004526E3,-1.8187858E3,6.5072437E3,2.0774719E4,1.7474803E3,7.195705E3,-1.1543522E3,-1.479995E3,2.5780805E4,6.93166E2,2.105345E3,-1.650833E3,-2.4803E3,6.4693555E3,4.5449336E3,4.2990704E2,-1.44099E2,-9.0441925E2,1.3138198E3,-6.611538E3,-5.2733887E3,1.0575664E4,9.550572E3,3.8651742E4,1.9073154E4,5.5321204E2,1.1712459E4,-6.6693115E2,2.634904E2,-1.2912043E3,-3.3647847E3,-1.3040866E2,2.9347844E3,7.539842E2,1.3503723E3,7.541684E3,-3.7692979E3,2.8078203E3,-7.4723944E2,-1.6288928E2,-4.161918E2,1.071363E3,7.2065063E3,3.5953748E2,-8.188668E1,5.473088E2,3.3180453E2,-3.4549557E2,-7.4479083E2,2.1306358E2,-1.2056907E3,2.155866E3,1.7213586E3,-4.3278694E0,1.4708636E3,-5.732231E2,8.3808563E2,5.9259697E3,3.0761758E2,2.8712417E3,6.3758215E2,-1.4321948E2,3.184393E3,7.0303845E2,-6.382531E2,1.4327014E3,-1.4543705E3,5.9327583E1,-1.1326752E2,-1.3073727E2,-1.1742642E3,-2.3123645E2,8.47368E2,8.9310875E1,-7.6454346E2,1.1634515E3,-4.5174118E2,3.1579367E2,4.794676E2,-4.8481284E2],"categories":[],"categories_nodes":[],"categories_segments":[],"categories_sizes":[],"default_left":[0,0,0,0,0,0,0,0,0,0,0,0,0,0,0,0,0,0,0,0,0,0,0,0,0,0,0,0,0,0,0,0,0,0,0,0,0,0,0,0,0,0,0,0,0,0,0,0,0,0,0,0,0,0,0,0,0,0,0,0,0,0,0,0,0,0,0,0,0,0,0,0,0,0,0,0,0,0,0,0,0,0,0,0,0,0,0,0,0,0,0,0,0,0,0,0,0],"id":15,"left_children":[1,3,5,7,9,11,13,15,17,19,21,-1,23,25,27,29,31,33,35,37,39,41,43,45,47,49,-1,51,53,55,57,59,61,-1,-1,63,65,67,69,71,73,75,77,79,81,83,85,87,-1,-1,-1,89,91,93,95,-1,-1,-1,-1,-1,-1,-1,-1,-1,-1,-1,-1,-1,-1,-1,-1,-1,-1,-1,-1,-1,-1,-1,-1,-1,-1,-1,-1,-1,-1,-1,-1,-1,-1,-1,-1,-1,-1,-1,-1,-1,-1],"loss_changes":[6.349209E9,4.5723387E9,1.4565981E9,9.471176E8,1.6047483E9,6.242048E7,2.423459E9,9.9512474E8,2.8399533E8,3.0914468E9,8.2112525E8,0E0,3.654093E7,1.7525248E7,5.1897258E8,1.0402763E9,1.4827308E9,1.143129E8,5.341695E8,4.2255547E9,3.4432865E9,1.6033859E9,1.5704095E9,1.9689766E8,1.8061709E8,3.898675E7,0E0,5.3568608E8,4.9230406E8,4.043582E8,7.214198E8,9.229824E9,1.3648047E9,0E0,0E0,2.2173315E8,1.1823251E8,4.446291E9,4.582446E9,1.1090993E9,3.8700995E9,6.8267085E8,8.645898E8,2.415323E9,1.548332E9,4.4811616E8,8.87552E5,3.8724688E8,0E0,0E0,0E0,3.7678515E8,1.0834838E9,1.9564822E8,2.8183664E8,0E0,0E0,0E0,0E0,0E0,0E0,0E0,0E0,0E0,0E0,0E0,0E0,0E0,0E0,0E0,0E0,0E0,0E0,0E0,0E0,0E0,0E0,0E0,0E0,0E0,0E0,0E0,0E0,0E0,0E0,0E0,0E0,0E0,0E0,0E0,0E0,0E0,0E0,0E0,0E0,0E0,0E0],"parents":[2147483647,0,0,1,1,2,2,3,3,4,4,5,5,6,6,7,7,8,8,9,9,10,10,12,12,13,13,14,14,15,15,16,16,17,17,18,18,19,19,20,20,21,21,22,22,23,23,24,24,25,25,27,27,28,28,29,29,30,30,31,31,32,32,35,35,36,36,37,37,38,38,39,39,40,40,41,41,42,42,43,43,44,44,45,45,46,46,47,47,51,51,52,52,53,53,54,54],"right_children":[2,4,6,8,10,12,14,16,18,20,22,-1,24,26,28,30,32,34,36,38,40,42,44,46,48,50,-1,52,54,56,58,60,62,-1,-1,64,66,68,70,72,74,76,78,80,82,84,86,88,-1,-1,-1,90,92,94,96,-1,-1,-1,-1,-1,-1,-1,-1,-1,-1,-1,-1,-1,-1,-1,-1,-1,-1,-1,-1,-1,-1,-1,-1,-1,-1,-1,-1,-1,-1,-1,-1,-1,-1,-1,-1,-1,-1,-1,-1,-1,-1],"split_conditions":[1.1E1,6E0,1.5E1,1.8E1,8E0,1.2E1,2E0,4E0,1.9E1,7E0,4E0,-5.896174E2,1.9E1,6E0,1.2E1,1.4E1,1.3E1,1E0,2E1,1.1E1,5E0,2E0,6E0,1.3E1,1E0,9E0,6.93166E2,1.2E1,5E0,3E0,1E0,1E0,1.2E1,-1.44099E2,-9.0441925E2,5E0,2.2E1,5E0,5E0,7E0,1E0,1E0,8E0,1E1,8E0,3E0,3E0,1E1,-1.3040866E2,2.9347844E3,7.539842E2,9E0,7E0,2.1E1,9E0,-7.4723944E2,-1.6288928E2,-4.161918E2,1.071363E3,7.2065063E3,3.5953748E2,-8.188668E1,5.473088E2,3.3180453E2,-3.4549557E2,-7.4479083E2,2.1306358E2,-1.2056907E3,2.155866E3,1.7213586E3,-4.3278694E0,1.4708636E3,-5.732231E2,8.3808563E2,5.9259697E3,3.0761758E2,2.8712417E3,6.3758215E2,-1.4321948E2,3.184393E3,7.0303845E2,-6.382531E2,1.4327014E3,-1.4543705E3,5.9327583E1,-1.1326752E2,-1.3073727E2,-1.1742642E3,-2.3123645E2,8.47368E2,8.9310875E1,-7.6454346E2,1.1634515E3,-4.5174118E2,3.1579367E2,4.794676E2,-4.8481284E2],"split_indices":[0,0,0,1,2,0,2,4,1,2,5,0,4,1,1,1,4,0,1,1,5,4,5,0,3,4,0,4,5,2,4,1,1,0,0,5,4,2,2,0,4,4,1,2,0,2,1,2,0,0,0,2,2,1,4,0,0,0,0,0,0,0,0,0,0,0,0,0,0,0,0,0,0,0,0,0,0,0,0,0,0,0,0,0,0,0,0,0,0,0,0,0,0,0,0,0,0],"split_type":[0,0,0,0,0,0,0,0,0,0,0,0,0,0,0,0,0,0,0,0,0,0,0,0,0,0,0,0,0,0,0,0,0,0,0,0,0,0,0,0,0,0,0,0,0,0,0,0,0,0,0,0,0,0,0,0,0,0,0,0,0,0,0,0,0,0,0,0,0,0,0,0,0,0,0,0,0,0,0,0,0,0,0,0,0,0,0,0,0,0,0,0,0,0,0,0,0],"sum_hessian":[2.5E3,7.43E2,1.757E3,5.19E2,2.24E2,1.571E3,1.86E2,4.73E2,4.6E1,1.04E2,1.2E2,2E0,1.569E3,4E0,1.82E2,1.11E2,3.62E2,1.2E1,3.4E1,8.6E1,1.8E1,7.7E1,4.3E1,1.012E3,5.57E2,3E0,1E0,1.32E2,5E1,9.7E1,1.4E1,1.47E2,2.15E2,3E0,9E0,2.1E1,1.3E1,2.2E1,6.4E1,1.2E1,6E0,4E0,7.3E1,2.7E1,1.6E1,8.9E1,9.23E2,4.6E1,5.11E2,2E0,1E0,1.17E2,1.5E1,3.4E1,1.6E1,1.3E1,8.4E1,4E0,1E1,1E0,1.46E2,1.73E2,4.2E1,1.5E1,6E0,1.2E1,1E0,1.8E1,4E0,3.9E1,2.5E1,9E0,3E0,3E0,3E0,2E0,2E0,1.8E1,5.5E1,4E0,2.3E1,1.2E1,4E0,1E0,8.8E1,9.2E1,8.31E2,4E0,4.2E1,6E0,1.11E2,3E0,1.2E1,3.1E1,3E0,1.3E1,3E0],"tree_param":{"num_deleted":"0","num_feature":"7","num_nodes":"97","size_leaf_vector":"1"}},{"base_weights":[7.303102E1,2.2996106E3,-8.6931726E2,8.073817E2,5.738097E3,-1.1548094E3,1.5352979E3,1.5747471E3,-1.3493751E3,8.334226E3,3.437836E3,-5.503096E2,-1.1457651E3,2.1933965E4,9.695676E2,3.3306501E3,-3.7206808E2,-3.1435396E3,1.9369518E3,5.887177E3,1.9100492E4,1.6198248E3,6.582541E3,-1.0405349E3,-1.3347479E3,2.4124916E4,6.585078E2,-1.856447E3,1.8245255E3,2.570602E3,3.276243E4,2.7118708E3,-2.490631E3,-5.210941E2,-4.679604E3,-2.2356074E3,4.654093E3,-4.7047373E3,9.544513E3,8.664563E3,3.5752863E4,1.7801611E4,5.045714E2,-6.780596E3,8.870947E3,2.2164091E2,-1.162348E3,-3.0582107E3,-1.1739325E2,2.7391323E3,7.16285E2,4.0444485E3,-4.271131E3,9.815606E3,1.4585623E3,2.9203984E3,2.0110936E2,8.352409E2,6.5201255E3,1.136773E2,4.0135298E3,4.1210422E2,-4.6114087E2,-3.8086118E2,5.082481E2,8.948046E1,-5.9108844E2,1.7138274E2,-2.769646E2,-5.066185E2,6.800796E2,-8.4728094E2,3.9096426E3,4.5435034E3,7.68394E2,1.6753801E3,-6.624682E1,7.752292E2,5.481522E3,2.8710977E2,2.6798254E3,-9.631387E1,7.465607E2,-1.062954E3,1.8945079E2,1.206245E3,-4.6049966E2,-1.381652E3,5.3461487E1,-1.0206256E2,-1.1767925E2,-1.0803231E3,-2.0865056E2,-3.9845874E2,8.055641E2,6.567792E1,-6.64903E2,-1.052371E3,1.5988212E3,3.6207553E2,-6.934334E1],"categories":[],"categories_nodes":[],"categories_segments":[],"categories_sizes":[],"default_left":[0,0,0,0,0,0,0,0,0,0,0,0,0,0,0,0,0,0,0,0,0,0,0,0,0,0,0,0,0,0,0,0,0,0,0,0,0,0,0,0,0,0,0,0,0,0,0,0,0,0,0,0,0,0,0,0,0,0,0,0,0,0,0,0,0,0,0,0,0,0,0,0,0,0,0,0,0,0,0,0,0,0,0,0,0,0,0,0,0,0,0,0,0,0,0,0,0,0,0,0,0],"id":16,"left_children":[1,3,5,7,9,11,13,15,17,19,21,-1,23,25,27,29,31,33,35,37,39,41,43,45,47,49,-1,51,53,55,57,59,61,63,65,67,69,71,73,75,77,79,81,83,85,87,89,91,-1,-1,-1,93,95,97,99,-1,-1,-1,-1,-1,-1,-1,-1,-1,-1,-1,-1,-1,-1,-1,-1,-1,-1,-1,-1,-1,-1,-1,-1,-1,-1,-1,-1,-1,-1,-1,-1,-1,-1,-1,-1,-1,-1,-1,-1,-1,-1,-1,-1,-1,-1],"loss_changes":[5.249631E9,3.8128384E9,1.2086377E9,8.6273555E8,1.3149983E9,5.5517824E7,2.1367402E9,1.3139118E9,8.1386976E8,2.6538383E9,6.8110746E8,0E0,2.9833088E7,9.27872E6,4.455378E8,4.434434E9,1.2023882E9,3.5607533E8,5.659389E8,3.4151273E9,2.9920932E9,1.3986676E9,1.405683E9,1.5600602E8,1.510649E8,2.5420032E7,0E0,6.299726E8,3.9802966E8,2.8917852E9,3.4145746E9,4.3752924E9,1.5473896E9,6.457001E8,3.89654E8,4.692972E7,6.604506E8,4.1273137E9,3.9913795E9,9.919301E8,3.3113539E9,5.9468224E8,7.632324E8,2.5386762E8,1.6898714E9,4.0280854E8,6.90304E5,3.311751E8,0E0,0E0,0E0,4.5077658E8,3.676272E8,9.215347E8,6.353229E8,0E0,0E0,0E0,0E0,0E0,0E0,0E0,0E0,0E0,0E0,0E0,0E0,0E0,0E0,0E0,0E0,0E0,0E0,0E0,0E0,0E0,0E0,0E0,0E0,0E0,0E0,0E0,0E0,0E0,0E0,0E0,0E0,0E0,0E0,0E0,0E0,0E0,0E0,0E0,0E0,0E0,0E0,0E0,0E0,0E0,0E0],"parents":[2147483647,0,0,1,1,2,2,3,3,4,4,5,5,6,6,7,7,8,8,9,9,10,10,12,12,13,13,14,14,15,15,16,16,17,17,18,18,19,19,20,20,21,21,22,22,23,23,24,24,25,25,27,27,28,28,29,29,30,30,31,31,32,32,33,33,34,34,35,35,36,36,37,37,38,38,39,39,40,40,41,41,42,42,43,43,44,44,45,45,46,46,47,47,51,51,52,52,53,53,54,54],"right_children":[2,4,6,8,10,12,14,16,18,20,22,-1,24,26,28,30,32,34,36,38,40,42,44,46,48,50,-1,52,54,56,58,60,62,64,66,68,70,72,74,76,78,80,82,84,86,88,90,92,-1,-1,-1,94,96,98,100,-1,-1,-1,-1,-1,-1,-1,-1,-1,-1,-1,-1,-1,-1,-1,-1,-1,-1,-1,-1,-1,-1,-1,-1,-1,-1,-1,-1,-1,-1,-1,-1,-1,-1,-1,-1,-1,-1,-1,-1,-1,-1,-1,-1,-1,-1],"split_conditions":[1.1E1,6E0,1.5E1,5E0,8E0,1.2E1,2E0,1.3E1,1.9E1,7E0,4E0,-5.503096E2,1.9E1,6E0,2E0,1.2E1,5E0,3E0,3E0,1.1E1,5E0,2E0,2E0,1.3E1,1E0,9E0,6.585078E2,1E0,2E0,1E0,3E0,3E0,5E0,2E0,3E0,1E0,4E0,6E0,1E0,2E0,1E0,1E0,1.5E1,7E0,2.2E1,3E0,3E0,1E1,-1.1739325E2,2.7391323E3,7.16285E2,2E1,7E0,1E0,4E0,2.9203984E3,2.0110936E2,8.352409E2,6.5201255E3,1.136773E2,4.0135298E3,4.1210422E2,-4.6114087E2,-3.8086118E2,5.082481E2,8.948046E1,-5.9108844E2,1.7138274E2,-2.769646E2,-5.066185E2,6.800796E2,-8.4728094E2,3.9096426E3,4.5435034E3,7.68394E2,1.6753801E3,-6.624682E1,7.752292E2,5.481522E3,2.8710977E2,2.6798254E3,-9.631387E1,7.465607E2,-1.062954E3,1.8945079E2,1.206245E3,-4.6049966E2,-1.381652E3,5.3461487E1,-1.0206256E2,-1.1767925E2,-1.0803231E3,-2.0865056E2,-3.9845874E2,8.055641E2,6.567792E1,-6.64903E2,-1.052371E3,1.5988212E3,3.6207553E2,-6.934334E1],"split_indices":[0,0,0,5,2,0,2,4,4,2,5,0,4,1,5,4,0,4,0,1,5,4,4,0,3,4,0,5,4,1,0,0,2,4,2,6,2,2,2,1,4,4,1,0,4,2,1,2,0,0,0,4,1,4,5,0,0,0,0,0,0,0,0,0,0,0,0,0,0,0,0,0,0,0,0,0,0,0,0,0,0,0,0,0,0,0,0,0,0,0,0,0,0,0,0,0,0,0,0,0,0],"split_type":[0,0,0,0,0,0,0,0,0,0,0,0,0,0,0,0,0,0,0,0,0,0,0,0,0,0,0,0,0,0,0,0,0,0,0,0,0,0,0,0,0,0,0,0,0,0,0,0,0,0,0,0,0,0,0,0,0,0,0,0,0,0,0,0,0,0,0,0,0,0,0,0,0,0,0,0,0,0,0,0,0,0,0,0,0,0,0,0,0,0,0,0,0,0,0,0,0,0,0,0,0],"sum_hessian":[2.5E3,7.43E2,1.757E3,5.19E2,2.24E2,1.571E3,1.86E2,3.83E2,1.36E2,1.04E2,1.2E2,2E0,1.569E3,4E0,1.82E2,2.01E2,1.82E2,8.8E1,4.8E1,8.6E1,1.8E1,7.7E1,4.3E1,1.012E3,5.57E2,3E0,1E0,4.2E1,1.4E2,1.97E2,4E0,7.4E1,1.08E2,3.3E1,5.5E1,1.9E1,2.9E1,2.2E1,6.4E1,1.2E1,6E0,4E0,7.3E1,6E0,3.7E1,8.9E1,9.23E2,4.6E1,5.11E2,2E0,1E0,1.2E1,3E1,5E0,1.35E2,3E0,1.94E2,3E0,1E0,7.2E1,2E0,2.6E1,8.2E1,2.1E1,1.2E1,1E1,4.5E1,2E0,1.7E1,5E0,2.4E1,2.1E1,1E0,2E0,6.2E1,6E0,6E0,3E0,3E0,2E0,2E0,6.1E1,1.2E1,4E0,2E0,3E1,7E0,1E0,8.8E1,9.2E1,8.31E2,4E0,4.2E1,4E0,8E0,1E1,2E1,1E0,4E0,6.7E1,6.8E1],"tree_param":{"num_deleted":"0","num_feature":"7","num_nodes":"101","size_leaf_vector":"1"}},{"base_weights":[7.9816124E1,2.1153193E3,-7.816709E2,7.5404486E2,5.2519746E3,-1.041558E3,1.407228E3,-2.0022689E3,1.3201511E3,6.0186514E3,-2.482348E3,-5.1362225E2,-1.0330703E3,2.0563352E4,8.761469E2,-8.8622253E2,-2.0867336E3,2.223038E3,-1.1586014E3,3.6310686E3,9.780732E3,-9.576662E3,1.6849547E4,-1.19498E3,-9.1887933E2,2.2576277E4,6.2558246E2,1.7991199E3,-1.5480012E3,-9.731268E2,-1.3894641E1,-2.335448E3,-1.7040583E3,4.3170205E3,-2.1352674E1,-3.0440603E3,2.4998718E3,2.0264807E4,2.6387773E3,1.6236698E4,2.8948535E2,-1.7310133E3,-5.5563276E3,2.5606162E3,3.0284941E3,-3.4204563E3,-1.0580331E2,2.259513E2,-1.0532689E3,2.5565232E3,6.804707E2,1.1177269E3,6.711948E3,-3.5146245E3,2.591988E3,-2.574764E1,-1.04948906E2,-2.6478012E2,-1.8601466E2,-1.7282071E2,-4.294275E1,3.4575317E2,3.095726E3,5.2411224E2,-2.2420178E2,-3.490556E1,-4.5769394E2,-4.0784247E2,4.541262E2,2.9271118E2,4.240603E3,4.124646E2,-3.5384674E2,5.4203125E2,2.5538306E3,2.3463855E3,-3.7160776E2,-1.0545985E3,-2.7213327E2,2.0009E3,-9.925179E2,-3.991093E2,8.561232E2,6.365762E2,-7.879698E1,-3.204305E2,-1.0441813E2,2.5342317E2,-9.28662E1,-7.0127405E2,1.0418627E3,-4.2070285E2,2.903262E2,4.4138458E2,-4.4325113E2],"categories":[],"categories_nodes":[],"categories_segments":[],"categories_sizes":[],"default_left":[0,0,0,0,0,0,0,0,0,0,0,0,0,0,0,0,0,0,0,0,0,0,0,0,0,0,0,0,0,0,0,0,0,0,0,0,0,0,0,0,0,0,0,0,0,0,0,0,0,0,0,0,0,0,0,0,0,0,0,0,0,0,0,0,0,0,0,0,0,0,0,0,0,0,0,0,0,0,0,0,0,0,0,0,0,0,0,0,0,0,0,0,0,0,0],"id":17,"left_children":[1,3,5,7,9,11,13,15,17,19,21,-1,23,25,27,29,31,33,35,37,39,41,43,45,47,49,-1,51,53,55,-1,57,59,61,63,65,67,69,71,73,75,-1,77,79,-1,81,-1,83,85,-1,-1,87,89,91,93,-1,-1,-1,-1,-1,-1,-1,-1,-1,-1,-1,-1,-1,-1,-1,-1,-1,-1,-1,-1,-1,-1,-1,-1,-1,-1,-1,-1,-1,-1,-1,-1,-1,-1,-1,-1,-1,-1,-1,-1],"loss_changes":[4.387306E9,3.1728072E9,1.0015329E9,8.140338E8,1.3491287E9,4.932723E7,1.8844197E9,6.540448E6,9.6940595E8,1.8058527E9,3.0414397E9,0E0,2.792896E7,2.766848E6,4.1223347E8,3.84319E5,3.824736E6,1.4899017E9,8.077663E8,2.0427256E9,4.836039E9,4.0127744E8,1.0743162E9,1.9326394E8,1.4255226E8,1.4598144E7,0E0,4.3772432E8,4.2434166E8,1.123225E5,0E0,2.052416E6,3.65968E5,3.6480707E9,1.8114249E9,3.1649837E8,5.5567597E8,2.5630175E9,1.1252023E9,4.5902326E9,3.1504643E9,0E0,1.410487E8,1.0700207E9,0E0,2.8714483E8,0E0,6.150938E8,1.2839616E7,0E0,0E0,3.4440237E8,8.87031E8,1.6774605E8,2.3712432E8,0E0,0E0,0E0,0E0,0E0,0E0,0E0,0E0,0E0,0E0,0E0,0E0,0E0,0E0,0E0,0E0,0E0,0E0,0E0,0E0,0E0,0E0,0E0,0E0,0E0,0E0,0E0,0E0,0E0,0E0,0E0,0E0,0E0,0E0,0E0,0E0,0E0,0E0,0E0,0E0],"parents":[2147483647,0,0,1,1,2,2,3,3,4,4,5,5,6,6,7,7,8,8,9,9,10,10,12,12,13,13,14,14,15,15,16,16,17,17,18,18,19,19,20,20,21,21,22,22,23,23,24,24,25,25,27,27,28,28,29,29,31,31,32,32,33,33,34,34,35,35,36,36,37,37,38,38,39,39,40,40,42,42,43,43,45,45,47,47,48,48,51,51,52,52,53,53,54,54],"right_children":[2,4,6,8,10,12,14,16,18,20,22,-1,24,26,28,30,32,34,36,38,40,42,44,46,48,50,-1,52,54,56,-1,58,60,62,64,66,68,70,72,74,76,-1,78,80,-1,82,-1,84,86,-1,-1,88,90,92,94,-1,-1,-1,-1,-1,-1,-1,-1,-1,-1,-1,-1,-1,-1,-1,-1,-1,-1,-1,-1,-1,-1,-1,-1,-1,-1,-1,-1,-1,-1,-1,-1,-1,-1,-1,-1,-1,-1,-1,-1],"split_conditions":[1.1E1,6E0,1.5E1,2E0,6E0,1.2E1,2E0,1E0,5E0,4E0,8E0,-5.1362225E2,3E0,6E0,1.2E1,1E0,4E0,1.3E1,1.9E1,1E0,2.2E1,1E1,9E0,1E0,1.3E1,9E0,6.2558246E2,1.2E1,5E0,2E0,-1.3894641E1,1E1,2.3E1,1.2E1,5E0,3E0,4E0,1.1E1,1.2E1,1.1E1,2E0,-1.7310133E3,4E0,4E0,3.0284941E3,2.3E1,-1.0580331E2,6E0,1E0,2.5565232E3,6.804707E2,4E0,7E0,2.1E1,9E0,-2.574764E1,-1.04948906E2,-2.6478012E2,-1.8601466E2,-1.7282071E2,-4.294275E1,3.4575317E2,3.095726E3,5.2411224E2,-2.2420178E2,-3.490556E1,-4.5769394E2,-4.0784247E2,4.541262E2,2.9271118E2,4.240603E3,4.124646E2,-3.5384674E2,5.4203125E2,2.5538306E3,2.3463855E3,-3.7160776E2,-1.0545985E3,-2.7213327E2,2.0009E3,-9.925179E2,-3.991093E2,8.561232E2,6.365762E2,-7.879698E1,-3.204305E2,-1.0441813E2,2.5342317E2,-9.28662E1,-7.0127405E2,1.0418627E3,-4.2070285E2,2.903262E2,4.4138458E2,-4.4325113E2],"split_indices":[0,0,0,0,5,0,2,4,5,5,0,0,5,1,1,0,5,4,4,2,4,2,2,3,0,4,0,4,5,2,0,4,4,4,0,4,2,1,1,1,1,0,4,2,0,4,0,4,3,0,0,5,2,1,4,0,0,0,0,0,0,0,0,0,0,0,0,0,0,0,0,0,0,0,0,0,0,0,0,0,0,0,0,0,0,0,0,0,0,0,0,0,0,0,0],"split_type":[0,0,0,0,0,0,0,0,0,0,0,0,0,0,0,0,0,0,0,0,0,0,0,0,0,0,0,0,0,0,0,0,0,0,0,0,0,0,0,0,0,0,0,0,0,0,0,0,0,0,0,0,0,0,0,0,0,0,0,0,0,0,0,0,0,0,0,0,0,0,0,0,0,0,0,0,0,0,0,0,0,0,0,0,0,0,0,0,0,0,0,0,0,0,0],"sum_hessian":[2.5E3,7.43E2,1.757E3,5.19E2,2.24E2,1.571E3,1.86E2,8.8E1,4.31E2,2.04E2,2E1,2E0,1.569E3,4E0,1.82E2,7E0,8.1E1,3.16E2,1.15E2,1.26E2,7.8E1,1.5E1,5E0,6.45E2,9.24E2,3E0,1E0,1.32E2,5E1,6E0,1E0,4.6E1,3.5E1,1.63E2,1.53E2,7.6E1,3.9E1,6E0,1.2E2,4.6E1,3.2E1,4E0,1.1E1,3E0,2E0,3.6E1,6.09E2,9.7E1,8.27E2,2E0,1E0,1.17E2,1.5E1,3.4E1,1.6E1,1E0,5E0,2.5E1,2.1E1,3.4E1,1E0,1.59E2,4E0,4.5E1,1.08E2,2.8E1,4.8E1,9E0,3E1,4E0,2E0,9.7E1,2.3E1,2.2E1,2.4E1,4E0,2.8E1,3E0,8E0,1E0,2E0,3.5E1,1E0,1.3E1,8.4E1,2E0,8.25E2,6.9E1,4.8E1,3E0,1.2E1,3.1E1,3E0,1.3E1,3E0],"tree_param":{"num_deleted":"0","num_feature":"7","num_nodes":"95","size_leaf_vector":"1"}},{"base_weights":[7.87628E1,1.9214294E3,-7.011136E2,6.834173E2,4.774073E3,-9.374209E2,1.2891335E3,-5.9136484E3,9.181365E2,1.0231529E4,3.7490208E3,-4.7938083E2,-9.2945496E2,1.9279531E3,7.905481E2,-8.695213E2,-3.0044464E2,-1.4920724E3,1.636348E3,-3.1028882E2,2.1411707E4,2.6379094E3,1.1370591E4,-8.292951E2,-1.0848861E3,-1.8516887E3,1.5907299E3,-2.4000044E3,6.148457E2,-4.700462E3,2.5840195E2,1.5954265E4,1.3696942E3,1.1703925E4,-5.437074E3,-1.02142755E3,2.6309457E4,3.9090225E3,-1.7836578E4,3.9578962E3,7.0071494E3,-8.7631354E2,1.0615443E4,-2.4699822E3,-9.5185936E1,3.2262239E3,-3.921404E3,8.944794E3,1.2545894E3,-5.64757E2,6.356711E1,-7.261601E2,-1.9154921E2,-6.25275E2,1.701223E2,6.6828735E3,-3.6629364E2,-1.8934917E2,2.0951042E2,-5.391359E2,2.1599407E3,-1.5673865E3,-2.4247871E2,3.547986E3,1.0760443E3,-2.317838E2,5.952067E2,-2.6645366E3,-3.6987177E2,1.7020742E3,6.9329033E0,-1.8589682E1,-9.4087685E1,2.220447E3,-6.4905464E1,-9.683748E2,-1.683476E2,-4.183934E2,6.984509E2,4.5347813E1,-6.0262756E2,-9.951092E2,1.471419E3,3.1951984E2,-6.760773E1],"categories":[],"categories_nodes":[],"categories_segments":[],"categories_sizes":[],"default_left":[0,0,0,0,0,0,0,0,0,0,0,0,0,0,0,0,0,0,0,0,0,0,0,0,0,0,0,0,0,0,0,0,0,0,0,0,0,0,0,0,0,0,0,0,0,0,0,0,0,0,0,0,0,0,0,0,0,0,0,0,0,0,0,0,0,0,0,0,0,0,0,0,0,0,0,0,0,0,0,0,0,0,0,0,0],"id":18,"left_children":[1,3,5,7,9,11,13,15,17,19,21,-1,23,-1,25,-1,27,29,31,33,35,37,39,41,43,45,47,49,-1,51,53,55,57,59,61,-1,63,65,67,-1,69,71,73,75,-1,77,79,81,83,-1,-1,-1,-1,-1,-1,-1,-1,-1,-1,-1,-1,-1,-1,-1,-1,-1,-1,-1,-1,-1,-1,-1,-1,-1,-1,-1,-1,-1,-1,-1,-1,-1,-1,-1,-1],"loss_changes":[3.5954148E9,2.6242534E9,8.2801325E8,8.106277E8,1.220332E9,4.383603E7,1.662102E9,2.7843034E8,8.7315456E8,4.1317228E9,1.5874719E9,0E0,2.3542144E7,0E0,3.8985693E8,0E0,1.09535304E8,6.5269414E8,1.4595035E9,1.2339268E9,2.9019658E9,4.441988E9,2.676718E9,5.2535392E8,1.1041286E8,4.645742E8,3.3732982E8,6.2741336E7,0E0,2.7853094E8,7.246139E8,7.230892E9,9.0821754E8,1.1314468E9,3.9370038E8,0E0,1.7570826E9,2.0365553E9,1.1468198E9,0E0,1.5272152E9,4.243923E7,5.365901E8,2.8440224E8,0E0,3.912661E8,2.8819834E8,8.0052915E8,5.117072E8,0E0,0E0,0E0,0E0,0E0,0E0,0E0,0E0,0E0,0E0,0E0,0E0,0E0,0E0,0E0,0E0,0E0,0E0,0E0,0E0,0E0,0E0,0E0,0E0,0E0,0E0,0E0,0E0,0E0,0E0,0E0,0E0,0E0,0E0,0E0,0E0],"parents":[2147483647,0,0,1,1,2,2,3,3,4,4,5,5,6,6,7,7,8,8,9,9,10,10,12,12,14,14,16,16,17,17,18,18,19,19,20,20,21,21,22,22,23,23,24,24,25,25,26,26,27,27,29,29,30,30,31,31,32,32,33,33,34,34,36,36,37,37,38,38,40,40,41,41,42,42,43,43,45,45,46,46,47,47,48,48],"right_children":[2,4,6,8,10,12,14,16,18,20,22,-1,24,-1,26,-1,28,30,32,34,36,38,40,42,44,46,48,50,-1,52,54,56,58,60,62,-1,64,66,68,-1,70,72,74,76,-1,78,80,82,84,-1,-1,-1,-1,-1,-1,-1,-1,-1,-1,-1,-1,-1,-1,-1,-1,-1,-1,-1,-1,-1,-1,-1,-1,-1,-1,-1,-1,-1,-1,-1,-1,-1,-1,-1,-1],"split_conditions":[1.1E1,6E0,1.5E1,1E0,4E0,1.2E1,2E0,5E0,4E0,2E0,1.5E1,-4.7938083E2,1.4E1,1.9279531E3,2E0,-8.695213E2,2.3E1,3E0,1E0,2E0,3E0,1.2E1,1E0,1.3E1,1E0,1E0,2E0,8E0,6.148457E2,2E0,4E0,5E0,2E0,5E0,5E0,-1.02142755E3,8E0,7E0,1.4E1,3.9578962E3,8E0,1.3E1,1.3E1,1E1,-9.5185936E1,2E1,7E0,1E0,4E0,-5.64757E2,6.356711E1,-7.261601E2,-1.9154921E2,-6.25275E2,1.701223E2,6.6828735E3,-3.6629364E2,-1.8934917E2,2.0951042E2,-5.391359E2,2.1599407E3,-1.5673865E3,-2.4247871E2,3.547986E3,1.0760443E3,-2.317838E2,5.952067E2,-2.6645366E3,-3.6987177E2,1.7020742E3,6.9329033E0,-1.8589682E1,-9.4087685E1,2.220447E3,-6.4905464E1,-9.683748E2,-1.683476E2,-4.183934E2,6.984509E2,4.5347813E1,-6.0262756E2,-9.951092E2,1.471419E3,3.1951984E2,-6.760773E1],"split_indices":[0,0,0,6,4,0,2,5,4,4,1,0,4,0,5,0,4,5,1,5,1,1,2,4,3,5,4,2,0,4,2,4,0,2,2,0,2,4,1,0,4,0,0,2,0,4,1,4,5,0,0,0,0,0,0,0,0,0,0,0,0,0,0,0,0,0,0,0,0,0,0,0,0,0,0,0,0,0,0,0,0,0,0,0,0],"split_type":[0,0,0,0,0,0,0,0,0,0,0,0,0,0,0,0,0,0,0,0,0,0,0,0,0,0,0,0,0,0,0,0,0,0,0,0,0,0,0,0,0,0,0,0,0,0,0,0,0,0,0,0,0,0,0,0,0,0,0,0,0,0,0,0,0,0,0,0,0,0,0,0,0,0,0,0,0,0,0,0,0,0,0,0,0],"sum_hessian":[2.5E3,7.43E2,1.757E3,5.19E2,2.24E2,1.571E3,1.86E2,1.7E1,5.02E2,3.4E1,1.9E2,2E0,1.569E3,4E0,1.82E2,1.1E1,6E0,1.15E2,3.87E2,1.8E1,1.6E1,1.67E2,2.3E1,9.58E2,6.11E2,4.2E1,1.4E2,5E0,1E0,4E1,7.5E1,6E0,3.81E2,5E0,1.3E1,2E0,1.4E1,1.58E2,9E0,2E0,2.1E1,9.55E2,3E0,5.2E1,5.59E2,1.2E1,3E1,5E0,1.35E2,2E0,3E0,2E1,2E1,1.3E1,6.2E1,1E0,5E0,6.9E1,3.12E2,2E0,3E0,2E0,1.1E1,8E0,6E0,3.9E1,1.19E2,5E0,4E0,8E0,1.3E1,8.2E1,8.73E2,1E0,2E0,4E0,4.8E1,4E0,8E0,1E1,2E1,1E0,4E0,6.7E1,6.8E1],"tree_param":{"num_deleted":"0","num_feature":"7","num_nodes":"85","size_leaf_vector":"1"}},{"base_weights":[7.621559E1,1.7435573E3,-6.294604E2,6.231678E2,4.3251523E3,-8.434679E2,1.1729419E3,9.920108E2,-3.109912E3,5.0177935E3,-2.6423015E3,-4.4742207E3,-8.359929E2,1.773717E4,7.139578E2,3.2456252E3,2.6106012E2,-8.045716E3,-2.0450037E3,2.85753E3,8.427105E3,-9.227761E3,1.5359306E4,-5.32722E2,-1.3841115E2,-9.780556E2,-7.358756E2,1.9681934E4,4.979055E2,-4.544398E3,1.076669E3,1.2765387E4,-7.435716E1,-5.8414175E3,1.4081893E3,-1.4410748E2,-1.0007083E3,-3.581678E2,-5.5208804E3,1.7414996E4,1.9917466E3,1.4263138E4,-1.4018488E2,-1.6466093E3,-5.4428096E3,2.2573135E3,2.7708862E3,-2.9304868E3,-8.580261E1,2.693053E2,-8.539575E2,2.2575583E3,5.500496E2,-8.560776E3,1.9817881E3,2.107931E3,5.968628E2,3.3155818E3,-7.8464195E1,-2.9852505E2,7.264068E2,-7.6364996E2,-2.400491E2,6.962685E2,-1.0833943E1,-5.469848E2,1.9599965E2,-6.357957E2,2.2620201E2,2.2167773E2,3.6940364E3,4.198774E2,-2.2595378E2,4.73317E2,2.2460183E3,2.1110583E3,-3.7992767E2,-9.9028076E2,-2.855831E2,1.8710947E3,-9.464214E2,-3.4684085E2,8.2173456E2,-5.361262E1,6.688275E2,-2.878453E2,-8.455708E1,-1.0508864E3,5.460049E2,1.4707098E2,-1.7717003E2],"categories":[],"categories_nodes":[],"categories_segments":[],"categories_sizes":[],"default_left":[0,0,0,0,0,0,0,0,0,0,0,0,0,0,0,0,0,0,0,0,0,0,0,0,0,0,0,0,0,0,0,0,0,0,0,0,0,0,0,0,0,0,0,0,0,0,0,0,0,0,0,0,0,0,0,0,0,0,0,0,0,0,0,0,0,0,0,0,0,0,0,0,0,0,0,0,0,0,0,0,0,0,0,0,0,0,0,0,0,0,0],"id":19,"left_children":[1,3,5,7,9,11,13,15,17,19,21,23,25,27,29,31,33,35,37,39,41,43,45,-1,-1,47,49,51,-1,53,55,57,59,61,63,-1,-1,65,67,69,71,73,75,-1,77,79,-1,81,-1,83,85,-1,-1,87,-1,-1,89,-1,-1,-1,-1,-1,-1,-1,-1,-1,-1,-1,-1,-1,-1,-1,-1,-1,-1,-1,-1,-1,-1,-1,-1,-1,-1,-1,-1,-1,-1,-1,-1,-1,-1],"loss_changes":[2.9437816E9,2.1492444E9,6.7909843E8,7.190837E8,1.099096E9,3.8923264E7,1.4090444E9,7.79964E8,2.3058688E8,1.4857467E9,2.631258E9,5.34112E5,2.161024E7,2.6060288E7,3.5392214E8,3.6671803E9,2.5213445E9,8.921206E7,2.3255195E8,1.5659729E9,3.951918E9,3.487259E8,9.082751E8,0E0,0E0,1.4887533E8,1.100217E8,3.996749E7,0E0,1.343834E9,1.6381695E9,8.3147433E9,1.8801244E9,3.3374285E8,2.5530906E9,0E0,0E0,3.4251286E8,9.907533E7,1.9953673E9,1.1447941E9,3.5652188E9,2.6462362E9,0E0,1.1017427E8,9.485313E8,0E0,2.5037754E8,0E0,5.102497E8,1.1624512E7,0E0,0E0,3.5783072E8,0E0,0E0,3.5239542E8,0E0,0E0,0E0,0E0,0E0,0E0,0E0,0E0,0E0,0E0,0E0,0E0,0E0,0E0,0E0,0E0,0E0,0E0,0E0,0E0,0E0,0E0,0E0,0E0,0E0,0E0,0E0,0E0,0E0,0E0,0E0,0E0,0E0,0E0],"parents":[2147483647,0,0,1,1,2,2,3,3,4,4,5,5,6,6,7,7,8,8,9,9,10,10,11,11,12,12,13,13,14,14,15,15,16,16,17,17,18,18,19,19,20,20,21,21,22,22,25,25,26,26,27,27,29,29,30,30,31,31,32,32,33,33,34,34,37,37,38,38,39,39,40,40,41,41,42,42,44,44,45,45,47,47,49,49,50,50,53,53,56,56],"right_children":[2,4,6,8,10,12,14,16,18,20,22,24,26,28,30,32,34,36,38,40,42,44,46,-1,-1,48,50,52,-1,54,56,58,60,62,64,-1,-1,66,68,70,72,74,76,-1,78,80,-1,82,-1,84,86,-1,-1,88,-1,-1,90,-1,-1,-1,-1,-1,-1,-1,-1,-1,-1,-1,-1,-1,-1,-1,-1,-1,-1,-1,-1,-1,-1,-1,-1,-1,-1,-1,-1,-1,-1,-1,-1,-1,-1],"split_conditions":[1.1E1,6E0,1.5E1,1.8E1,6E0,1.2E1,2E0,5E0,1E0,4E0,8E0,9E0,3E0,6E0,7E0,1E1,7E0,1E0,2E1,1E0,2.2E1,1E1,9E0,-5.32722E2,-1.3841115E2,1E0,1.3E1,9E0,4.979055E2,6E0,9E0,8E0,1.2E1,5E0,1E1,-1.4410748E2,-1.0007083E3,1.9E1,2.2E1,1.1E1,3E0,1.1E1,2E0,-1.6466093E3,4E0,4E0,2.7708862E3,2.3E1,-8.580261E1,1.9E1,1E0,2.2575583E3,5.500496E2,1.3E1,1.9817881E3,2.107931E3,1.2E1,3.3155818E3,-7.8464195E1,-2.9852505E2,7.264068E2,-7.6364996E2,-2.400491E2,6.962685E2,-1.0833943E1,-5.469848E2,1.9599965E2,-6.357957E2,2.2620201E2,2.2167773E2,3.6940364E3,4.198774E2,-2.2595378E2,4.73317E2,2.2460183E3,2.1110583E3,-3.7992767E2,-9.9028076E2,-2.855831E2,1.8710947E3,-9.464214E2,-3.4684085E2,8.2173456E2,-5.361262E1,6.688275E2,-2.878453E2,-8.455708E1,-1.0508864E3,5.460049E2,1.4707098E2,-1.7717003E2],"split_indices":[0,0,0,1,5,0,2,2,5,5,0,2,5,1,2,1,2,0,1,2,4,2,2,0,0,3,0,4,0,5,2,4,1,5,2,0,0,1,4,1,5,1,1,0,4,2,0,4,0,1,3,0,0,1,0,0,1,0,0,0,0,0,0,0,0,0,0,0,0,0,0,0,0,0,0,0,0,0,0,0,0,0,0,0,0,0,0,0,0,0,0],"split_type":[0,0,0,0,0,0,0,0,0,0,0,0,0,0,0,0,0,0,0,0,0,0,0,0,0,0,0,0,0,0,0,0,0,0,0,0,0,0,0,0,0,0,0,0,0,0,0,0,0,0,0,0,0,0,0,0,0,0,0,0,0,0,0,0,0,0,0,0,0,0,0,0,0,0,0,0,0,0,0,0,0,0,0,0,0,0,0,0,0,0,0],"sum_hessian":[2.5E3,7.43E2,1.757E3,5.19E2,2.24E2,1.571E3,1.86E2,4.73E2,4.6E1,2.04E2,2E1,2E0,1.569E3,4E0,1.82E2,1.15E2,3.58E2,7E0,3.9E1,1.26E2,7.8E1,1.5E1,5E0,1E0,1E0,6.45E2,9.24E2,3E0,1E0,1.1E1,1.71E2,2.9E1,8.6E1,5.6E1,3.02E2,2E0,5E0,2.7E1,1.2E1,6E0,1.2E2,4.6E1,3.2E1,4E0,1.1E1,3E0,2E0,3.6E1,6.09E2,9.7E1,8.27E2,2E0,1E0,1E1,1E0,3E0,1.68E2,1.1E1,1.8E1,6.2E1,2.4E1,3.6E1,2E1,6.4E1,2.38E2,8E0,1.9E1,1.1E1,1E0,4E0,2E0,7.9E1,4.1E1,2.2E1,2.4E1,4E0,2.8E1,3E0,8E0,1E0,2E0,3.5E1,1E0,8.7E1,1E1,2E0,8.25E2,9E0,1E0,1.23E2,4.5E1],"tree_param":{"num_deleted":"0","num_feature":"7","num_nodes":"91","size_leaf_vector":"1"}},{"base_weights":[7.5629456E1,1.5836835E3,-5.626344E2,5.636229E2,3.9341182E3,-7.5914606E2,1.0923334E3,-1.5704341E3,1.2077661E3,8.902724E3,3.0030435E3,-4.25051E3,-7.5199115E2,1.6624555E4,6.619867E2,-4.375516E3,-1.311896E2,3.1820408E3,-1.4943782E2,-4.7760736E2,1.8862934E4,-1.7641886E3,4.571266E3,-5.060859E2,-1.3149059E2,-6.6100226E2,-8.933413E2,1.8415645E4,4.7301016E2,-1.7032356E3,1.3786007E3,-7.5315693E3,-2.460097E3,-5.966699E3,1.0721681E3,6.18295E3,2.4383557E3,-2.5336567E3,1.266195E3,1.0453769E4,-5.128368E3,-9.813242E2,2.3340639E4,-7.557162E3,1.0294081E4,8.76087E3,-2.400686E2,-7.0554004E2,1.0148778E4,-2.160378E3,-7.718301E1,2.1070544E3,5.2254706E2,2.7133762E3,-3.5004202E3,7.7738643E3,1.08632E3,-1.1113244E2,-9.0440204E2,-5.9544037E2,7.3230804E1,-1.0859832E3,-2.9234634E2,2.8851167E3,-1.1148187E2,5.7350586E2,-2.3216716E2,5.275276E2,-3.5889047E2,-1.0152339E3,2.2428584E2,-5.3118536E2,1.9664543E3,-1.1105946E2,-1.2138241E3,3.163959E3,9.336183E2,-1.7684528E3,3.014742E2,1.9275625E3,-4.0072797E2,1.1324723E3,-9.549416E2,-2.1049455E2,4.3408838E2,-1.0294111E1,-7.619591E1,2.1121052E3,-5.489978E1,-8.690221E2,-1.4499783E2,-3.9668765E2,6.1231415E2,3.8745724E1,-5.370241E2,-8.928094E2,1.2899874E3,2.8539774E2,-6.714629E1],"categories":[],"categories_nodes":[],"categories_segments":[],"categories_sizes":[],"default_left":[0,0,0,0,0,0,0,0,0,0,0,0,0,0,0,0,0,0,0,0,0,0,0,0,0,0,0,0,0,0,0,0,0,0,0,0,0,0,0,0,0,0,0,0,0,0,0,0,0,0,0,0,0,0,0,0,0,0,0,0,0,0,0,0,0,0,0,0,0,0,0,0,0,0,0,0,0,0,0,0,0,0,0,0,0,0,0,0,0,0,0,0,0,0,0,0,0,0,0],"id":20,"left_children":[1,3,5,7,9,11,13,15,17,19,21,23,25,27,29,31,33,35,37,39,41,43,45,-1,-1,47,49,51,-1,53,55,57,59,61,63,-1,65,67,69,71,73,-1,75,77,79,81,83,85,87,89,-1,-1,-1,91,93,95,97,-1,-1,-1,-1,-1,-1,-1,-1,-1,-1,-1,-1,-1,-1,-1,-1,-1,-1,-1,-1,-1,-1,-1,-1,-1,-1,-1,-1,-1,-1,-1,-1,-1,-1,-1,-1,-1,-1,-1,-1,-1,-1],"loss_changes":[2.4081946E9,1.781587E9,5.725668E8,7.1670854E8,1.0141468E9,3.6072896E7,1.2389477E9,4.87927E8,1.0722728E9,3.2790612E9,1.4359964E9,4.8204E5,1.9601728E7,1.9412352E7,3.125242E8,2.293234E8,5.7519597E8,6.9585213E9,8.065006E8,1.01955584E9,2.4119066E9,3.4307492E9,2.9047956E9,0E0,0E0,4.6886483E8,9.255558E7,2.9970816E7,0E0,3.5080902E8,2.5511402E8,1.3560371E8,3.0555194E8,1.7672506E8,4.1633203E9,0E0,2.5554831E9,7.523247E8,1.6955799E9,9.757367E8,3.8081648E8,0E0,1.4479416E9,3.5864765E9,2.1324157E9,3.722901E9,5.9005536E8,3.2423648E7,4.8111117E8,2.3325571E8,0E0,0E0,0E0,3.20405E8,2.2743933E8,6.288577E8,4.244898E8,0E0,0E0,0E0,0E0,0E0,0E0,0E0,0E0,0E0,0E0,0E0,0E0,0E0,0E0,0E0,0E0,0E0,0E0,0E0,0E0,0E0,0E0,0E0,0E0,0E0,0E0,0E0,0E0,0E0,0E0,0E0,0E0,0E0,0E0,0E0,0E0,0E0,0E0,0E0,0E0,0E0,0E0],"parents":[2147483647,0,0,1,1,2,2,3,3,4,4,5,5,6,6,7,7,8,8,9,9,10,10,11,11,12,12,13,13,14,14,15,15,16,16,17,17,18,18,19,19,20,20,21,21,22,22,25,25,26,26,27,27,29,29,30,30,31,31,32,32,33,33,34,34,36,36,37,37,38,38,39,39,40,40,42,42,43,43,44,44,45,45,46,46,47,47,48,48,49,49,53,53,54,54,55,55,56,56],"right_children":[2,4,6,8,10,12,14,16,18,20,22,24,26,28,30,32,34,36,38,40,42,44,46,-1,-1,48,50,52,-1,54,56,58,60,62,64,-1,66,68,70,72,74,-1,76,78,80,82,84,86,88,90,-1,-1,-1,92,94,96,98,-1,-1,-1,-1,-1,-1,-1,-1,-1,-1,-1,-1,-1,-1,-1,-1,-1,-1,-1,-1,-1,-1,-1,-1,-1,-1,-1,-1,-1,-1,-1,-1,-1,-1,-1,-1,-1,-1,-1,-1,-1,-1],"split_conditions":[1.1E1,6E0,1.5E1,4E0,4E0,1.2E1,2E0,3E0,1.3E1,2E0,7E0,9E0,1.4E1,6E0,2E0,1E1,4E0,1E0,1.1E1,2E0,3E0,5E0,1E1,-5.060859E2,-1.3149059E2,1.3E1,1E0,9E0,4.7301016E2,1E0,2E0,1E0,2E0,4E0,5E0,6.18295E3,4E0,2E0,2E0,5E0,1E0,-9.813242E2,8E0,9E0,6E0,5E0,8E0,1.3E1,1.3E1,1E1,-7.718301E1,2.1070544E3,5.2254706E2,2E1,7E0,1E0,4E0,-1.1113244E2,-9.0440204E2,-5.9544037E2,7.3230804E1,-1.0859832E3,-2.9234634E2,2.8851167E3,-1.1148187E2,5.7350586E2,-2.3216716E2,5.275276E2,-3.5889047E2,-1.0152339E3,2.2428584E2,-5.3118536E2,1.9664543E3,-1.1105946E2,-1.2138241E3,3.163959E3,9.336183E2,-1.7684528E3,3.014742E2,1.9275625E3,-4.0072797E2,1.1324723E3,-9.549416E2,-2.1049455E2,4.3408838E2,-1.0294111E1,-7.619591E1,2.1121052E3,-5.489978E1,-8.690221E2,-1.4499783E2,-3.9668765E2,6.1231415E2,3.8745724E1,-5.370241E2,-8.928094E2,1.2899874E3,2.8539774E2,-6.714629E1],"split_indices":[0,0,0,4,4,0,2,5,4,4,4,2,4,1,5,1,2,1,1,5,1,5,2,0,0,4,3,4,0,5,4,0,4,5,2,0,5,2,2,2,4,0,2,2,4,5,0,0,0,2,0,0,0,4,1,4,5,0,0,0,0,0,0,0,0,0,0,0,0,0,0,0,0,0,0,0,0,0,0,0,0,0,0,0,0,0,0,0,0,0,0,0,0,0,0,0,0,0,0],"split_type":[0,0,0,0,0,0,0,0,0,0,0,0,0,0,0,0,0,0,0,0,0,0,0,0,0,0,0,0,0,0,0,0,0,0,0,0,0,0,0,0,0,0,0,0,0,0,0,0,0,0,0,0,0,0,0,0,0,0,0,0,0,0,0,0,0,0,0,0,0,0,0,0,0,0,0,0,0,0,0,0,0,0,0,0,0,0,0,0,0,0,0,0,0,0,0,0,0,0,0],"sum_hessian":[2.5E3,7.43E2,1.757E3,5.19E2,2.24E2,1.571E3,1.86E2,1.2E2,3.99E2,3.4E1,1.9E2,2E0,1.569E3,4E0,1.82E2,4E1,8E1,1.62E2,2.37E2,1.8E1,1.6E1,4.7E1,1.43E2,1E0,1E0,9.58E2,6.11E2,3E0,1E0,4.2E1,1.4E2,1.4E1,2.6E1,1.3E1,6.7E1,1E0,1.61E2,8.8E1,1.49E2,5E0,1.3E1,2E0,1.4E1,3.2E1,1.5E1,7.6E1,6.7E1,9.55E2,3E0,5.2E1,5.59E2,2E0,1E0,1.2E1,3E1,5E0,1.35E2,3E0,1.1E1,1.2E1,1.4E1,4E0,9E0,4E0,6.3E1,9.5E1,6.6E1,1E1,7.8E1,1.1E1,1.38E2,2E0,3E0,9E0,4E0,8E0,6E0,1.6E1,1.6E1,9E0,6E0,6.7E1,9E0,4.8E1,1.9E1,8.2E1,8.73E2,1E0,2E0,4E0,4.8E1,4E0,8E0,1E1,2E1,1E0,4E0,6.7E1,6.8E1],"tree_param":{"num_deleted":"0","num_feature":"7","num_nodes":"99","size_leaf_vector":"1"}},{"base_weights":[7.331418E1,1.4380128E3,-5.0427917E2,5.183366E2,3.5570957E3,-6.830775E2,1.00147107E3,8.57837E2,-2.9165889E3,-8.670522E2,3.8744075E3,-4.0379844E3,-6.762318E2,1.5582623E4,5.9760645E2,-1.2941387E3,1.5194442E3,-7.5565137E3,-1.9156893E3,5.278116E3,3.703972E2,-4.807816E2,-1.2491607E2,-5.8489484E2,-8.03935E2,1.723148E4,4.4935977E2,-4.1107417E3,9.226214E2,-2.358794E3,5.747886E3,3.3164417E3,2.8113367E2,-1.7273405E2,-9.211681E2,-3.957277E2,-5.0420923E3,7.987952E2,7.894296E3,1.73893E4,-2.3713982E3,5.264316E2,-6.9439923E2,-1.9511854E3,-7.0125465E1,1.9665842E3,4.9641974E2,-7.790262E3,1.8181992E3,1.903957E3,4.8835855E2,-1.1511053E3,-1.9486064E2,-3.7791785E2,9.555835E2,5.8738027E3,2.5398457E2,-2.278396E2,2.0586104E2,2.104766E2,-4.4514694E2,-5.801729E2,2.036776E2,4.3545932E2,-1.2118228E3,4.342119E2,1.3247847E3,2.2988792E3,-1.472606E2,8.2330853E2,-4.8557007E2,-2.2472632E2,2.5957355E2,-5.9575165E2,-6.809774E1,8.679005E2,-2.9960788E2,-9.5781586E2,5.0443478E2,-8.572079E1,1.9960162E2],"categories":[],"categories_nodes":[],"categories_segments":[],"categories_sizes":[],"default_left":[0,0,0,0,0,0,0,0,0,0,0,0,0,0,0,0,0,0,0,0,0,0,0,0,0,0,0,0,0,0,0,0,0,0,0,0,0,0,0,0,0,0,0,0,0,0,0,0,0,0,0,0,0,0,0,0,0,0,0,0,0,0,0,0,0,0,0,0,0,0,0,0,0,0,0,0,0,0,0,0,0],"id":21,"left_children":[1,3,5,7,9,11,13,15,17,-1,19,21,23,25,27,29,31,33,35,37,39,-1,-1,41,43,45,-1,47,49,51,53,55,57,-1,-1,59,61,63,65,67,69,71,73,75,-1,-1,-1,77,-1,-1,79,-1,-1,-1,-1,-1,-1,-1,-1,-1,-1,-1,-1,-1,-1,-1,-1,-1,-1,-1,-1,-1,-1,-1,-1,-1,-1,-1,-1,-1,-1],"loss_changes":[1.9721156E9,1.4481157E9,4.7398285E8,6.089043E8,9.065856E8,3.3373184E7,1.0918954E9,6.768299E8,2.0379674E8,0E0,1.0801388E9,4.3504E5,1.7842304E7,1.398976E7,2.8383453E8,8.53259E8,8.0683E8,6.1274336E7,1.8808518E8,1.8335319E9,3.0276273E9,0E0,0E0,1.1220339E8,7.543738E7,2.1826944E7,0E0,1.1259612E9,1.343915E9,3.454756E8,5.802919E8,6.220761E9,9.8738323E8,0E0,0E0,2.9332726E8,8.172266E7,2.7626588E9,1.8251351E9,9.844068E8,1.515283E9,4.8222154E8,5.5069216E7,6.146959E8,0E0,0E0,0E0,3.007319E8,0E0,0E0,3.4455344E8,0E0,0E0,0E0,0E0,0E0,0E0,0E0,0E0,0E0,0E0,0E0,0E0,0E0,0E0,0E0,0E0,0E0,0E0,0E0,0E0,0E0,0E0,0E0,0E0,0E0,0E0,0E0,0E0,0E0,0E0],"parents":[2147483647,0,0,1,1,2,2,3,3,4,4,5,5,6,6,7,7,8,8,10,10,11,11,12,12,13,13,14,14,15,15,16,16,17,17,18,18,19,19,20,20,23,23,24,24,25,25,27,27,28,28,29,29,30,30,31,31,32,32,35,35,36,36,37,37,38,38,39,39,40,40,41,41,42,42,43,43,47,47,50,50],"right_children":[2,4,6,8,10,12,14,16,18,-1,20,22,24,26,28,30,32,34,36,38,40,-1,-1,42,44,46,-1,48,50,52,54,56,58,-1,-1,60,62,64,66,68,70,72,74,76,-1,-1,-1,78,-1,-1,80,-1,-1,-1,-1,-1,-1,-1,-1,-1,-1,-1,-1,-1,-1,-1,-1,-1,-1,-1,-1,-1,-1,-1,-1,-1,-1,-1,-1,-1,-1],"split_conditions":[1.1E1,6E0,1.5E1,1.8E1,1E0,1.2E1,2E0,4E0,1E0,-8.670522E2,2.2E1,9E0,4E0,6E0,7E0,1.4E1,1.3E1,1E0,2E1,1.1E1,5E0,-4.807816E2,-1.2491607E2,1.3E1,1E0,9E0,4.4935977E2,6E0,9E0,1E0,1E0,1E0,1.1E1,-1.7273405E2,-9.211681E2,5E0,2.2E1,8E0,9E0,1E1,3E0,3E0,1E0,5E0,-7.0125465E1,1.9665842E3,4.9641974E2,1.3E1,1.8181992E3,1.903957E3,7E0,-1.1511053E3,-1.9486064E2,-3.7791785E2,9.555835E2,5.8738027E3,2.5398457E2,-2.278396E2,2.0586104E2,2.104766E2,-4.4514694E2,-5.801729E2,2.036776E2,4.3545932E2,-1.2118228E3,4.342119E2,1.3247847E3,2.2988792E3,-1.472606E2,8.2330853E2,-4.8557007E2,-2.2472632E2,2.5957355E2,-5.9575165E2,-6.809774E1,8.679005E2,-2.9960788E2,-9.5781586E2,5.0443478E2,-8.572079E1,1.9960162E2],"split_indices":[0,0,0,1,6,0,2,4,5,0,4,2,5,1,2,1,4,0,1,1,1,0,0,0,3,4,0,5,2,1,4,1,1,0,0,5,4,1,4,2,5,5,3,4,0,0,0,1,0,0,4,0,0,0,0,0,0,0,0,0,0,0,0,0,0,0,0,0,0,0,0,0,0,0,0,0,0,0,0,0,0],"split_type":[0,0,0,0,0,0,0,0,0,0,0,0,0,0,0,0,0,0,0,0,0,0,0,0,0,0,0,0,0,0,0,0,0,0,0,0,0,0,0,0,0,0,0,0,0,0,0,0,0,0,0,0,0,0,0,0,0,0,0,0,0,0,0,0,0,0,0,0,0,0,0,0,0,0,0,0,0,0,0,0,0],"sum_hessian":[2.5E3,7.43E2,1.757E3,5.19E2,2.24E2,1.571E3,1.86E2,4.73E2,4.6E1,5E0,2.19E2,2E0,1.569E3,4E0,1.82E2,1.11E2,3.62E2,7E0,3.9E1,1.56E2,6.3E1,1E0,1E0,9.18E2,6.51E2,3E0,1E0,1.1E1,1.71E2,9.7E1,1.4E1,1.47E2,2.15E2,2E0,5E0,2.7E1,1.2E1,5.8E1,9.8E1,8E0,5.5E1,8.2E1,8.36E2,5.2E1,5.99E2,2E0,1E0,1E1,1E0,3E0,1.68E2,3E0,9.4E1,4E0,1E1,1E0,1.46E2,8.8E1,1.27E2,1.7E1,1E1,1.1E1,1E0,4.6E1,1.2E1,6E1,3.8E1,6E0,2E0,1E1,4.5E1,3.5E1,4.7E1,1E0,8.35E2,4E0,4.8E1,9E0,1E0,8.9E1,7.9E1],"tree_param":{"num_deleted":"0","num_feature":"7","num_nodes":"81","size_leaf_vector":"1"}},{"base_weights":[7.069922E1,1.00093896E3,-6.2103357E2,-6.084058E3,1.1559188E3,-5.4039923E2,-6.2926483E1,-8.536339E3,-1.320918E3,2.4945234E3,3.2527222E2,-2.1953032E2,-6.412484E1,-9.348426E3,-3.965993E3,2.675008E3,-5.0526608E2,1.02397595E3,5.721536E3,-2.412925E3,6.2010297E2,-6.1256954E1,2.3266235E2,-2.5578072E2,-9.733227E2,-5.115843E2,-1.8774287E3,4.58685E3,-2.48618E2,2.9613542E3,-3.079969E3,1.5828015E3,9.517556E3,-3.9392585E3,-6.026493E2,4.803662E3,2.8705286E2,3.0637808E3,-5.9284737E1,1.0814561E2,-3.8975992E2,-1.8899489E2,7.375766E2,-4.0886023E2,4.1690402E2,1.8963641E3,-3.8046915E2,-4.359691E2,1.0314379E3,1.5232216E3,-3.181359E2,1.8873022E1,-4.4959482E2,6.844538E0,-6.665317E2,1.8785147E2,1.220375E3,-1.3997034E2,7.3461266E1,-4.499156E1,6.802435E2],"categories":[],"categories_nodes":[],"categories_segments":[],"categories_sizes":[],"default_left":[0,0,0,0,0,0,0,0,0,0,0,0,0,0,0,0,0,0,0,0,0,0,0,0,0,0,0,0,0,0,0,0,0,0,0,0,0,0,0,0,0,0,0,0,0,0,0,0,0,0,0,0,0,0,0,0,0,0,0,0,0],"id":22,"left_children":[1,3,5,7,9,11,-1,13,15,17,19,21,-1,23,25,27,-1,29,31,33,35,-1,37,-1,-1,-1,39,41,-1,43,45,47,49,51,53,55,57,59,-1,-1,-1,-1,-1,-1,-1,-1,-1,-1,-1,-1,-1,-1,-1,-1,-1,-1,-1,-1,-1,-1,-1],"loss_changes":[1.6099584E9,1.1786331E9,6.12352E5,2.5737696E8,1.1611318E9,4.38954E6,0E0,1.8596992E7,1.4772181E8,1.892331E9,5.230151E8,6.363053E6,0E0,6.460672E6,1.512E3,6.074062E7,0E0,2.2035676E9,1.9487754E9,1.7170038E8,8.123285E8,0E0,4.1547324E7,0E0,0E0,0E0,2.2147436E7,8.619281E7,0E0,1.6177025E9,1.4939702E9,3.2100946E9,4.765506E9,7.89808E7,1.2251492E8,9.078682E8,4.1019722E8,5.5606508E7,0E0,0E0,0E0,0E0,0E0,0E0,0E0,0E0,0E0,0E0,0E0,0E0,0E0,0E0,0E0,0E0,0E0,0E0,0E0,0E0,0E0,0E0,0E0],"parents":[2147483647,0,0,1,1,2,2,3,3,4,4,5,5,7,7,8,8,9,9,10,10,11,11,13,13,14,14,15,15,17,17,18,18,19,19,20,20,22,22,26,26,27,27,29,29,30,30,31,31,32,32,33,33,34,34,35,35,36,36,37,37],"right_children":[2,4,6,8,10,12,-1,14,16,18,20,22,-1,24,26,28,-1,30,32,34,36,-1,38,-1,-1,-1,40,42,-1,44,46,48,50,52,54,56,58,60,-1,-1,-1,-1,-1,-1,-1,-1,-1,-1,-1,-1,-1,-1,-1,-1,-1,-1,-1,-1,-1,-1,-1],"split_conditions":[1E0,1E0,3E0,5E0,1E1,3E0,-6.2926483E1,2.1E1,6E0,7E0,3E0,7E0,-6.412484E1,1E0,3E0,1.2E1,-5.0526608E2,5E0,1.1E1,8E0,6E0,-6.1256954E1,8E0,-2.5578072E2,-9.733227E2,-5.115843E2,3E0,4E0,-2.48618E2,1E0,2E0,4E0,1.7E1,2E0,2.3E1,5E0,2E0,2E0,-5.9284737E1,1.0814561E2,-3.8975992E2,-1.8899489E2,7.375766E2,-4.0886023E2,4.1690402E2,1.8963641E3,-3.8046915E2,-4.359691E2,1.0314379E3,1.5232216E3,-3.181359E2,1.8873022E1,-4.4959482E2,6.844538E0,-6.665317E2,1.8785147E2,1.220375E3,-1.3997034E2,7.3461266E1,-4.499156E1,6.802435E2],"split_indices":[3,6,1,5,2,3,0,4,5,2,1,4,0,4,1,1,0,2,1,4,1,0,4,0,0,0,0,1,0,5,1,5,1,4,4,1,5,1,0,0,0,0,0,0,0,0,0,0,0,0,0,0,0,0,0,0,0,0,0,0,0],"split_type":[0,0,0,0,0,0,0,0,0,0,0,0,0,0,0,0,0,0,0,0,0,0,0,0,0,0,0,0,0,0,0,0,0,0,0,0,0,0,0,0,0,0,0,0,0,0,0,0,0,0,0,0,0,0,0,0,0,0,0,0,0],"sum_hessian":[2.5E3,1.066E3,1.434E3,2.2E1,1.044E3,1.39E2,1.295E3,1.4E1,8E0,3.99E2,6.45E2,3.4E1,1.05E2,1.1E1,3E0,4E0,4E0,2.75E2,1.24E2,6.2E1,5.83E2,1.8E1,1.6E1,1E0,1E1,1E0,2E0,3E0,1E0,1.87E2,8.8E1,6E1,6.4E1,3.3E1,2.9E1,4.2E1,5.41E2,3E0,1.3E1,1E0,1E0,1E0,2E0,2.7E1,1.6E2,2E0,8.6E1,3.6E1,2.4E1,4.4E1,2E1,4E0,2.9E1,2.7E1,2E0,3.1E1,1.1E1,1.13E2,4.28E2,2E0,1E0],"tree_param":{"num_deleted":"0","num_feature":"7","num_nodes":"61","size_leaf_vector":"1"}},{"base_weights":[6.432339E1,1.1868977E3,-4.1079584E2,3.6630023E2,3.0781145E3,-5.6699316E2,9.044607E2,9.84887E2,-1.3702227E3,3.6936501E3,-3.0772644E3,-4.297169E3,-5.595043E2,1.427331E4,5.342492E2,-7.033283E3,1.2402039E3,-2.037567E3,5.7510776E3,9.549738E3,2.71331E3,-9.018902E3,1.327998E4,-5.329036E2,-1.1167175E2,-6.000187E2,-2.852755E2,1.5811404E4,4.0604648E2,1.2869739E3,-1.4392142E3,-8.895631E3,-4.4322305E3,6.2293657E3,7.3763995E2,-2.8267668E3,-1.355577E2,1.4150996E4,-5.00734E3,3.439987E4,4.1977227E3,-9.871112E3,3.3674314E3,-1.9711024E3,-6.083526E3,1.1195322E3,2.5067253E3,-1.0364174E3,-5.564226E2,3.6239146E3,-5.703194E1,1.8076848E3,4.5075372E2,6.276372E2,6.069146E3,-3.2835664E3,2.4426409E3,-9.70279E2,-2.4299168E2,-5.5133966E2,1.02738335E2,-2.1689397E2,1.7011815E3,-2.2570975E2,1.5084665E2,-1.7808272E2,-5.931182E2,-1.8364778E2,4.8106665E2,-3.7599237E2,2.2067349E3,-6.686986E2,-1.09869896E2,6.1460503E3,1.2269589E3,1.2005999E3,-5.2617426E2,-1.6950393E3,2.3381562E3,2.2434813E2,1.1628687E3,-9.7591156E2,-3.6373788E2,1.7382028E3,-1.0095309E3,-1.3717731E3,-7.1343925E1,-4.8314087E1,-5.651957E1,7.221603E2,-2.3766031E2,1.92809E2,-1.24296165E2,1.2737958E3,-2.1919102E2,1.1039219E2,-4.051612E2,4.101215E2,-3.9730273E2],"categories":[],"categories_nodes":[],"categories_segments":[],"categories_sizes":[],"default_left":[0,0,0,0,0,0,0,0,0,0,0,0,0,0,0,0,0,0,0,0,0,0,0,0,0,0,0,0,0,0,0,0,0,0,0,0,0,0,0,0,0,0,0,0,0,0,0,0,0,0,0,0,0,0,0,0,0,0,0,0,0,0,0,0,0,0,0,0,0,0,0,0,0,0,0,0,0,0,0,0,0,0,0,0,0,0,0,0,0,0,0,0,0,0,0,0,0,0,0],"id":23,"left_children":[1,3,5,7,9,11,13,15,17,19,21,23,25,27,29,31,33,35,37,39,41,43,45,-1,-1,47,49,51,-1,53,55,57,59,61,63,65,67,69,71,73,75,77,79,-1,81,83,-1,85,87,89,-1,-1,-1,91,93,95,97,-1,-1,-1,-1,-1,-1,-1,-1,-1,-1,-1,-1,-1,-1,-1,-1,-1,-1,-1,-1,-1,-1,-1,-1,-1,-1,-1,-1,-1,-1,-1,-1,-1,-1,-1,-1,-1,-1,-1,-1,-1,-1],"loss_changes":[1.3344124E9,1.1535066E9,3.6167552E8,5.599284E8,8.638593E8,4.1509216E7,9.178939E8,7.948374E8,6.627915E8,1.150985E9,2.1607363E9,3.89438E6,1.727184E7,1.4339968E7,2.7369408E8,1.8701312E7,9.306548E8,1.8875104E8,1.1552968E9,3.7125496E9,1.4902578E9,3.8225382E8,8.319672E8,0E0,0E0,2.5430816E7,2.293821E8,2.0950976E7,0E0,4.1554797E8,3.731555E8,7.736224E6,4.698363E7,3.1157443E9,7.8826854E8,2.7842336E8,3.2853373E8,1.0754956E9,3.2043824E7,2.2402022E9,1.9097248E9,2.5149714E9,1.5431167E9,0E0,9.037686E7,9.0500205E8,0E0,4.9399514E8,5.2736E5,3.193947E8,0E0,0E0,0E0,2.894464E8,9.0938336E8,1.224153E8,1.9718883E8,0E0,0E0,0E0,0E0,0E0,0E0,0E0,0E0,0E0,0E0,0E0,0E0,0E0,0E0,0E0,0E0,0E0,0E0,0E0,0E0,0E0,0E0,0E0,0E0,0E0,0E0,0E0,0E0,0E0,0E0,0E0,0E0,0E0,0E0,0E0,0E0,0E0,0E0,0E0,0E0,0E0,0E0],"parents":[2147483647,0,0,1,1,2,2,3,3,4,4,5,5,6,6,7,7,8,8,9,9,10,10,11,11,12,12,13,13,14,14,15,15,16,16,17,17,18,18,19,19,20,20,21,21,22,22,25,25,26,26,27,27,29,29,30,30,31,31,32,32,33,33,34,34,35,35,36,36,37,37,38,38,39,39,40,40,41,41,42,42,44,44,45,45,47,47,48,48,49,49,53,53,54,54,55,55,56,56],"right_children":[2,4,6,8,10,12,14,16,18,20,22,24,26,28,30,32,34,36,38,40,42,44,46,-1,-1,48,50,52,-1,54,56,58,60,62,64,66,68,70,72,74,76,78,80,-1,82,84,-1,86,88,90,-1,-1,-1,92,94,96,98,-1,-1,-1,-1,-1,-1,-1,-1,-1,-1,-1,-1,-1,-1,-1,-1,-1,-1,-1,-1,-1,-1,-1,-1,-1,-1,-1,-1,-1,-1,-1,-1,-1,-1,-1,-1,-1,-1,-1,-1,-1,-1],"split_conditions":[1.1E1,6E0,1.5E1,5E0,6E0,1.2E1,2E0,1E0,2.3E1,4E0,8E0,9E0,1.9E1,6E0,1.2E1,4E0,3E0,1.9E1,6E0,3E0,5E0,2E0,9E0,-5.329036E2,-1.1167175E2,1E0,1.3E1,9E0,4.0604648E2,1.2E1,5E0,8E0,2.1E1,3E0,4E0,7E0,6E0,4E0,1.2E1,7E0,7E0,5E0,1.5E1,-1.9711024E3,4E0,4E0,2.5067253E3,3E0,3E0,4E0,-5.703194E1,1.8076848E3,4.5075372E2,4E0,2.1E1,9E0,9E0,-9.70279E2,-2.4299168E2,-5.5133966E2,1.02738335E2,-2.1689397E2,1.7011815E3,-2.2570975E2,1.5084665E2,-1.7808272E2,-5.931182E2,-1.8364778E2,4.8106665E2,-3.7599237E2,2.2067349E3,-6.686986E2,-1.09869896E2,6.1460503E3,1.2269589E3,1.2005999E3,-5.2617426E2,-1.6950393E3,2.3381562E3,2.2434813E2,1.1628687E3,-9.7591156E2,-3.6373788E2,1.7382028E3,-1.0095309E3,-1.3717731E3,-7.1343925E1,-4.8314087E1,-5.651957E1,7.221603E2,-2.3766031E2,1.92809E2,-1.24296165E2,1.2737958E3,-2.1919102E2,1.1039219E2,-4.051612E2,4.101215E2,-3.9730273E2],"split_indices":[0,0,0,5,5,0,2,6,4,4,0,2,1,1,1,1,1,4,5,2,4,2,2,0,0,3,0,4,0,4,5,2,4,5,4,4,5,1,1,0,0,5,1,0,4,2,0,2,1,5,0,0,0,5,4,2,4,0,0,0,0,0,0,0,0,0,0,0,0,0,0,0,0,0,0,0,0,0,0,0,0,0,0,0,0,0,0,0,0,0,0,0,0,0,0,0,0,0,0],"split_type":[0,0,0,0,0,0,0,0,0,0,0,0,0,0,0,0,0,0,0,0,0,0,0,0,0,0,0,0,0,0,0,0,0,0,0,0,0,0,0,0,0,0,0,0,0,0,0,0,0,0,0,0,0,0,0,0,0,0,0,0,0,0,0,0,0,0,0,0,0,0,0,0,0,0,0,0,0,0,0,0,0,0,0,0,0,0,0,0,0,0,0,0,0,0,0,0,0,0,0],"sum_hessian":[2.5E3,7.43E2,1.757E3,5.19E2,2.24E2,1.571E3,1.86E2,3.83E2,1.36E2,2.04E2,2E1,2E0,1.569E3,4E0,1.82E2,1.1E1,3.72E2,1.25E2,1.1E1,2.8E1,1.76E2,1.5E1,5E0,1E0,1E0,1.366E3,2.03E2,3E0,1E0,1.32E2,5E1,5E0,6E0,3.3E1,3.39E2,8.8E1,3.7E1,6E0,5E0,4E0,2.4E1,8E0,1.68E2,2E0,1.3E1,3E0,2E0,1.22E2,1.244E3,1.3E1,1.9E2,2E0,1E0,1.17E2,1.5E1,3.4E1,1.6E1,4E0,1E0,5E0,1E0,1.9E1,1.4E1,6.9E1,2.7E2,6.7E1,2.1E1,2.8E1,9E0,2E0,4E0,3E0,2E0,1E0,3E0,1.3E1,1.1E1,7E0,1E0,1.49E2,1.9E1,4E0,9E0,1E0,2E0,2E0,1.2E2,1.39E2,1.105E3,8E0,5E0,6.9E1,4.8E1,8E0,7E0,5E0,2.9E1,1.3E1,3E0],"tree_param":{"num_deleted":"0","num_feature":"7","num_nodes":"99","size_leaf_vector":"1"}},{"base_weights":[6.2716747E1,1.0820902E3,-3.6872614E2,-5.332429E3,1.2849321E3,-5.1141663E2,8.327616E2,-7.4105234E3,-1.2764464E3,-1.931347E3,1.734402E3,-4.0823108E3,-5.0426752E2,1.3378875E4,4.8542102E2,-8.060856E3,-3.606895E2,2.134116E3,-4.4317194E2,-4.470019E2,-2.0526082E3,2.8863154E3,5.135017E2,-5.0625845E2,-1.0608816E2,-5.411492E2,-2.5465256E2,1.4794873E4,3.8574414E2,-3.8516802E3,7.8518726E2,-2.3084209E2,-8.3739484E2,3.8026682E3,-2.2700468E2,5.0512405E1,-8.485646E2,-2.4934006E3,-1.63477E3,1.2698098E3,6.689511E3,9.421301E2,-1.7256364E3,-9.445084E2,-5.0086453E2,3.2961301E3,-5.1358612E1,1.6871725E3,4.2821603E2,-7.3882466E3,1.7525276E3,1.6964078E3,3.9760886E2,-1.70641E2,6.2078314E2,-1.0158129E2,-6.1612743E-1,-2.7458398E2,-2.7813446E1,-9.3911545E1,-1.8880324E2,3.2320923E2,-3.1701196E2,3.8571614E3,4.9034894E2,-2.7536713E2,1.3296425E2,-3.544556E2,8.266761E2,-1.2803215E3,-6.426851E1,-4.351719E1,-5.0872723E1,-4.538085E2,5.8452875E2,-9.032768E2,4.528482E2,8.0576675E1,-3.5557614E2],"categories":[],"categories_nodes":[],"categories_segments":[],"categories_sizes":[],"default_left":[0,0,0,0,0,0,0,0,0,0,0,0,0,0,0,0,0,0,0,0,0,0,0,0,0,0,0,0,0,0,0,0,0,0,0,0,0,0,0,0,0,0,0,0,0,0,0,0,0,0,0,0,0,0,0,0,0,0,0,0,0,0,0,0,0,0,0,0,0,0,0,0,0,0,0,0,0,0,0],"id":24,"left_children":[1,3,5,7,9,11,13,15,17,19,21,23,25,27,29,31,-1,33,-1,35,37,39,41,-1,-1,43,45,47,-1,49,51,-1,-1,53,-1,-1,55,57,59,61,63,65,67,69,71,73,-1,-1,-1,75,-1,-1,77,-1,-1,-1,-1,-1,-1,-1,-1,-1,-1,-1,-1,-1,-1,-1,-1,-1,-1,-1,-1,-1,-1,-1,-1,-1,-1],"loss_changes":[1.1003423E9,9.74895E8,3.0181894E8,1.8440122E8,1.04708774E9,3.8072544E7,8.084095E8,8.029696E6,1.063091E8,1.5101888E7,8.901576E8,3.514684E6,1.4315968E7,1.0341248E7,2.4094562E8,2.28192E6,0E0,4.5375116E7,0E0,3.487336E6,1.1026624E7,1.9957164E9,2.981911E8,0E0,0E0,2.1739552E7,1.8925387E8,1.5085952E7,0E0,1.0366933E9,1.07179616E9,0E0,0E0,6.3594024E7,0E0,0E0,8.39085E5,2.0486656E7,6.15516E6,2.0140972E9,5.334251E9,3.7602518E8,9.380703E8,4.3201744E8,4.21696E5,3.0611546E8,0E0,0E0,0E0,2.5647514E8,0E0,0E0,2.755634E8,0E0,0E0,0E0,0E0,0E0,0E0,0E0,0E0,0E0,0E0,0E0,0E0,0E0,0E0,0E0,0E0,0E0,0E0,0E0,0E0,0E0,0E0,0E0,0E0,0E0,0E0],"parents":[2147483647,0,0,1,1,2,2,3,3,4,4,5,5,6,6,7,7,8,8,9,9,10,10,11,11,12,12,13,13,14,14,15,15,17,17,19,19,20,20,21,21,22,22,25,25,26,26,27,27,29,29,30,30,33,33,36,36,37,37,38,38,39,39,40,40,41,41,42,42,43,43,44,44,45,45,49,49,52,52],"right_children":[2,4,6,8,10,12,14,16,18,20,22,24,26,28,30,32,-1,34,-1,36,38,40,42,-1,-1,44,46,48,-1,50,52,-1,-1,54,-1,-1,56,58,60,62,64,66,68,70,72,74,-1,-1,-1,76,-1,-1,78,-1,-1,-1,-1,-1,-1,-1,-1,-1,-1,-1,-1,-1,-1,-1,-1,-1,-1,-1,-1,-1,-1,-1,-1,-1,-1],"split_conditions":[1.1E1,1E0,1.5E1,5E0,2E0,1.2E1,2E0,2.1E1,6E0,1E0,1E1,9E0,1.9E1,6E0,7E0,1E0,-3.606895E2,1.2E1,-4.4317194E2,6E0,9E0,7E0,2.2E1,-5.0625845E2,-1.0608816E2,1E0,1.3E1,9E0,3.8574414E2,6E0,9E0,-2.3084209E2,-8.3739484E2,4E0,-2.2700468E2,5.0512405E1,1E0,6E0,7E0,5E0,5E0,3E0,7E0,3E0,3E0,3E0,-5.1358612E1,1.6871725E3,4.2821603E2,1.3E1,1.7525276E3,1.6964078E3,1.9E1,-1.70641E2,6.2078314E2,-1.0158129E2,-6.1612743E-1,-2.7458398E2,-2.7813446E1,-9.3911545E1,-1.8880324E2,3.2320923E2,-3.1701196E2,3.8571614E3,4.9034894E2,-2.7536713E2,1.3296425E2,-3.544556E2,8.266761E2,-1.2803215E3,-6.426851E1,-4.351719E1,-5.0872723E1,-4.538085E2,5.8452875E2,-9.032768E2,4.528482E2,8.0576675E1,-3.5557614E2],"split_indices":[0,6,0,5,0,0,2,4,5,4,2,2,1,1,2,4,0,1,0,2,4,2,4,0,0,3,0,4,0,5,2,0,0,1,0,0,0,5,1,2,0,1,0,2,1,5,0,0,0,1,0,0,1,0,0,0,0,0,0,0,0,0,0,0,0,0,0,0,0,0,0,0,0,0,0,0,0,0,0],"split_type":[0,0,0,0,0,0,0,0,0,0,0,0,0,0,0,0,0,0,0,0,0,0,0,0,0,0,0,0,0,0,0,0,0,0,0,0,0,0,0,0,0,0,0,0,0,0,0,0,0,0,0,0,0,0,0,0,0,0,0,0,0,0,0,0,0,0,0,0,0,0,0,0,0,0,0,0,0,0,0],"sum_hessian":[2.5E3,7.43E2,1.757E3,2.2E1,7.21E2,1.571E3,1.86E2,1.4E1,8E0,8.8E1,6.33E2,2E0,1.569E3,4E0,1.82E2,1.1E1,3E0,4E0,4E0,7E0,8.1E1,3.25E2,3.08E2,1E0,1E0,1.366E3,2.03E2,3E0,1E0,1.1E1,1.71E2,1E0,1E1,3E0,1E0,2E0,5E0,3.7E1,4.4E1,2.29E2,9.6E1,2.59E2,4.9E1,1.22E2,1.244E3,1.3E1,1.9E2,2E0,1E0,1E1,1E0,3E0,1.68E2,1E0,2E0,4E0,1E0,3.3E1,4E0,1.3E1,3.1E1,1.59E2,7E1,4E0,9.2E1,2.4E1,2.35E2,4.2E1,7E0,2E0,1.2E2,1.39E2,1.105E3,3E0,1E1,9E0,1E0,1.53E2,1.5E1],"tree_param":{"num_deleted":"0","num_feature":"7","num_nodes":"79","size_leaf_vector":"1"}},{"base_weights":[5.8704323E1,9.7710394E2,-3.3000333E2,2.3357959E2,2.6911287E3,-4.615294E2,7.7742444E2,5.713654E2,-2.4669104E3,3.25167E3,-2.908971E3,-3.878195E3,-4.5470676E2,1.2541215E4,4.517612E2,-1.7733894E3,1.0219702E3,-8.878389E2,-5.926634E3,1.4947595E3,6.0349097E3,-8.404115E3,1.2229575E4,-4.8094553E2,-1.0078375E2,-3.73339E2,-5.68698E2,1.3844233E4,3.6645703E2,-1.5463525E3,1.0579111E3,-1.5757477E3,-2.9004865E2,1.794337E3,-1.0042283E3,-4.4053325E3,2.3502388E3,-8.462465E3,-3.5436082E3,1.441168E4,7.351463E2,1.1064528E4,-1.3113627E3,-1.861243E3,-5.616325E3,8.6376953E2,2.3307458E3,-5.5445026E2,5.5023167E1,-1.7585614E3,-4.6264557E1,1.5746942E3,4.0680527E2,1.88064E3,-2.9335962E3,8.7430426E2,9.212391E3,1.5583222E0,-1.7064401E2,3.51907E2,-5.67969E0,-2.877863E2,2.8229813E2,-2.4203044E2,-6.14833E2,-1.842751E2,6.7107513E2,-1.009206E3,-2.382454E2,4.7048972E2,-5.8993756E2,8.717721E1,3.21743E3,-6.598006E2,2.0807263E2,2.5422954E2,1.8462402E3,1.5279747E3,-4.1266794E2,-9.156235E2,-3.284738E2,1.6351321E3,-9.7491876E2,-2.1106224E2,-4.591506E1,2.2303557E2,-4.0520145E1,8.179062E2,-2.7367157E2,-4.2912704E2,5.100519E2,5.3029827E1,-4.6083224E2,2.4020984E2,-5.8075558E1,1.7983477E3,-4.16489E2],"categories":[],"categories_nodes":[],"categories_segments":[],"categories_sizes":[],"default_left":[0,0,0,0,0,0,0,0,0,0,0,0,0,0,0,0,0,0,0,0,0,0,0,0,0,0,0,0,0,0,0,0,0,0,0,0,0,0,0,0,0,0,0,0,0,0,0,0,0,0,0,0,0,0,0,0,0,0,0,0,0,0,0,0,0,0,0,0,0,0,0,0,0,0,0,0,0,0,0,0,0,0,0,0,0,0,0,0,0,0,0,0,0,0,0,0,0],"id":25,"left_children":[1,3,5,7,9,11,13,15,17,19,21,23,25,27,29,31,33,35,37,39,41,43,45,-1,-1,47,49,51,-1,53,55,57,-1,59,61,63,65,67,69,71,73,75,77,-1,79,81,-1,83,85,87,-1,-1,-1,89,91,93,95,-1,-1,-1,-1,-1,-1,-1,-1,-1,-1,-1,-1,-1,-1,-1,-1,-1,-1,-1,-1,-1,-1,-1,-1,-1,-1,-1,-1,-1,-1,-1,-1,-1,-1,-1,-1,-1,-1,-1,-1],"loss_changes":[8.931518E8,9.4753926E8,2.564214E8,4.757469E8,7.157536E8,3.4880864E7,7.107378E8,4.909986E8,3.1160083E8,9.934093E8,1.8497371E9,3.172E6,1.434976E7,7.099008E6,2.2327754E8,1.2136656E7,6.105747E8,4.7734016E8,7.878554E7,1.2355119E9,2.9334769E9,3.5080474E8,7.353222E8,0E0,0E0,7.1327656E7,8.146091E7,1.0345536E7,0E0,2.0994218E8,2.0305336E8,1.3752944E7,0E0,9.005447E8,7.825696E8,5.4317184E7,4.1460506E8,5.5219776E7,2.4150309E8,1.6554807E9,1.2076772E9,2.9162445E9,1.6044591E9,0E0,8.547466E7,8.16887E8,0E0,9.483448E7,2.7521658E8,5.375717E8,0E0,0E0,0E0,2.8023418E8,1.8227704E8,3.1039645E8,4.2689907E8,0E0,0E0,0E0,0E0,0E0,0E0,0E0,0E0,0E0,0E0,0E0,0E0,0E0,0E0,0E0,0E0,0E0,0E0,0E0,0E0,0E0,0E0,0E0,0E0,0E0,0E0,0E0,0E0,0E0,0E0,0E0,0E0,0E0,0E0,0E0,0E0,0E0,0E0,0E0,0E0],"parents":[2147483647,0,0,1,1,2,2,3,3,4,4,5,5,6,6,7,7,8,8,9,9,10,10,11,11,12,12,13,13,14,14,15,15,16,16,17,17,18,18,19,19,20,20,21,21,22,22,25,25,26,26,27,27,29,29,30,30,31,31,33,33,34,34,35,35,36,36,37,37,38,38,39,39,40,40,41,41,42,42,44,44,45,45,47,47,48,48,49,49,53,53,54,54,55,55,56,56],"right_children":[2,4,6,8,10,12,14,16,18,20,22,24,26,28,30,32,34,36,38,40,42,44,46,-1,-1,48,50,52,-1,54,56,58,-1,60,62,64,66,68,70,72,74,76,78,-1,80,82,-1,84,86,88,-1,-1,-1,90,92,94,96,-1,-1,-1,-1,-1,-1,-1,-1,-1,-1,-1,-1,-1,-1,-1,-1,-1,-1,-1,-1,-1,-1,-1,-1,-1,-1,-1,-1,-1,-1,-1,-1,-1,-1,-1,-1,-1,-1,-1,-1],"split_conditions":[1.1E1,6E0,1.5E1,1.7E1,6E0,1.2E1,2E0,2E0,2.1E1,4E0,8E0,9E0,4E0,6E0,2E0,1.2E1,5E0,6E0,3E0,1E0,2.2E1,2E0,9E0,-4.8094553E2,-1.0078375E2,3E0,1E0,9E0,3.6645703E2,1E0,2.3E1,1E0,-2.9004865E2,1.3E1,1.9E1,3E0,2E0,5E0,6E0,1.1E1,3E0,1.1E1,2E0,-1.861243E3,4E0,4E0,2.3307458E3,1E0,1.3E1,5E0,-4.6264557E1,1.5746942E3,4.0680527E2,2E1,7E0,4E0,9E0,1.5583222E0,-1.7064401E2,3.51907E2,-5.67969E0,-2.877863E2,2.8229813E2,-2.4203044E2,-6.14833E2,-1.842751E2,6.7107513E2,-1.009206E3,-2.382454E2,4.7048972E2,-5.8993756E2,8.717721E1,3.21743E3,-6.598006E2,2.0807263E2,2.5422954E2,1.8462402E3,1.5279747E3,-4.1266794E2,-9.156235E2,-3.284738E2,1.6351321E3,-9.7491876E2,-2.1106224E2,-4.591506E1,2.2303557E2,-4.0520145E1,8.179062E2,-2.7367157E2,-4.2912704E2,5.100519E2,5.3029827E1,-4.6083224E2,2.4020984E2,-5.8075558E1,1.7983477E3,-4.16489E2],"split_indices":[0,0,0,1,5,0,2,0,4,5,0,2,5,1,5,1,5,4,2,2,4,2,2,0,0,5,3,4,0,5,4,4,0,4,4,4,0,5,2,1,2,1,1,0,4,2,0,3,0,4,0,0,0,4,1,5,1,0,0,0,0,0,0,0,0,0,0,0,0,0,0,0,0,0,0,0,0,0,0,0,0,0,0,0,0,0,0,0,0,0,0,0,0,0,0,0,0],"split_type":[0,0,0,0,0,0,0,0,0,0,0,0,0,0,0,0,0,0,0,0,0,0,0,0,0,0,0,0,0,0,0,0,0,0,0,0,0,0,0,0,0,0,0,0,0,0,0,0,0,0,0,0,0,0,0,0,0,0,0,0,0,0,0,0,0,0,0,0,0,0,0,0,0,0,0,0,0,0,0,0,0,0,0,0,0,0,0,0,0,0,0,0,0,0,0,0,0],"sum_hessian":[2.5E3,7.43E2,1.757E3,5.19E2,2.24E2,1.571E3,1.86E2,4.62E2,5.7E1,2.04E2,2E1,2E0,1.569E3,4E0,1.82E2,7.4E1,3.88E2,4E1,1.7E1,1.26E2,7.8E1,1.5E1,5E0,1E0,1E0,9.18E2,6.51E2,3E0,1E0,4.2E1,1.4E2,6.5E1,9E0,2.81E2,1.07E2,1.9E1,2.1E1,7E0,1E1,6E0,1.2E2,4.6E1,3.2E1,2E0,1.3E1,3E0,2E0,6.45E2,2.73E2,5.2E1,5.99E2,2E0,1E0,1.2E1,3E1,1.38E2,2E0,5E0,6E1,1.45E2,1.36E2,7.2E1,3.5E1,1E1,9E0,1.1E1,1E1,5E0,2E0,2E0,8E0,4E0,2E0,1.8E1,1.02E2,2.2E1,2.4E1,4E0,2.8E1,4E0,9E0,1E0,2E0,3.6E1,6.09E2,4.7E1,2.26E2,4E0,4.8E1,4E0,8E0,1E1,2E1,6.7E1,7.1E1,1E0,1E0],"tree_param":{"num_deleted":"0","num_feature":"7","num_nodes":"97","size_leaf_vector":"1"}},{"base_weights":[5.5843002E1,8.849029E2,-2.950537E2,-4.8910864E3,1.0676769E3,-4.154771E2,7.188534E2,-6.9133184E3,-9.772457E2,3.553556E2,2.6914495E3,-3.6842854E3,-4.0896634E2,1.1756686E4,4.1334512E2,-8.583288E3,-4.846306E3,2.0716357E3,-3.830678E3,-1.394635E3,8.776328E2,1.2754539E4,2.349706E3,-4.5689825E2,